float w0[32][5] = {
{6.262815594673156738e-01, -2.536928653717041016e-02, 2.300012260675430298e-01, -1.313226372003555298e-01, -2.286765538156032562e-02},
{9.070252068340778351e-03, 6.994532942771911621e-01, -9.481738321483135223e-03, 3.460066616535186768e-01, 1.610190570354461670e-01},
{1.424636244773864746e-01, -5.505387485027313232e-02, 8.752335309982299805e-01, 1.426844596862792969e-01, 3.065123558044433594e-01},
{-1.188244745135307312e-01, 2.464417070150375366e-01, 6.865634322166442871e-01, 7.016328722238540649e-02, 1.185645982623100281e-01},
{-1.386956423521041870e-01, 5.085702612996101379e-02, 7.675312757492065430e-01, -1.674647778272628784e-01, 4.698079526424407959e-01},
{-4.022028446197509766e-01, 2.146563529968261719e-01, 7.710236310958862305e-02, 3.868424519896507263e-02, 1.725863367319107056e-01},
{-4.800482988357543945e-01, 7.892747223377227783e-02, 4.735088050365447998e-01, -6.594956666231155396e-02, 4.890139102935791016e-01},
{2.205086350440979004e-01, -5.483627784997224808e-03, 1.007744431495666504e+00, 4.659890830516815186e-01, 3.962537646293640137e-01},
{1.021125689148902893e-01, 1.927559971809387207e-01, -8.942726999521255493e-02, 5.651050209999084473e-01, 9.293320029973983765e-02},
{6.697198841720819473e-03, -7.316556572914123535e-01, -5.721887350082397461e-01, 3.712463378906250000e-01, -6.846422702074050903e-02},
{8.517260849475860596e-02, 9.759519249200820923e-02, -3.105750083923339844e-01, 2.917756736278533936e-01, -5.615766048431396484e-01},
{-1.475152671337127686e-01, 4.522261023521423340e-01, -6.851657629013061523e-01, -2.295488491654396057e-02, -7.839189469814300537e-02},
{-1.206652075052261353e-01, -1.456249207258224487e-01, -4.416411221027374268e-01, 3.808923363685607910e-01, -2.192372232675552368e-01},
{4.782796204090118408e-01, 2.317226491868495941e-02, 2.114007025957107544e-01, 1.989531368017196655e-01, 2.266426011919975281e-02},
{-3.156802952289581299e-01, -2.697992138564586639e-02, 1.555986255407333374e-01, 7.601678371429443359e-02, 3.747800290584564209e-01},
{-1.837971359491348267e-01, 1.014789119362831116e-01, -1.196864247322082520e+00, -3.741691708564758301e-01, -4.150457978248596191e-01},
{-4.488085582852363586e-02, -3.110246956348419189e-01, 2.071229740977287292e-02, -3.028002679347991943e-01, 5.807424783706665039e-01},
{-4.250073432922363281e-01, 1.237951740622520447e-01, -4.937895387411117554e-02, -2.705424427986145020e-01, 2.639453113079071045e-02},
{-2.618089877068996429e-02, 3.445463478565216064e-01, 8.852454274892807007e-02, -1.597773730754852295e-01, -1.842874884605407715e-01},
{4.088867455720901489e-02, -1.583436578512191772e-01, 6.909869313240051270e-01, 2.706567645072937012e-01, 5.126425996422767639e-02},
{2.559956014156341553e-01, 5.955662727355957031e-01, -3.665898144245147705e-01, 2.475043237209320068e-01, -2.136401087045669556e-01},
{5.682644844055175781e-01, -1.697167009115219116e-02, 2.978369295597076416e-01, 7.579928040504455566e-01, 5.979784727096557617e-01},
{-3.472042977809906006e-01, 4.223479032516479492e-01, -2.481553852558135986e-01, 2.863171398639678955e-01, 5.826951861381530762e-01},
{-3.998531699180603027e-01, -2.504913508892059326e-01, 3.982381522655487061e-02, 2.184657603502273560e-01, -3.989996910095214844e-01},
{1.383082121610641479e-01, 2.402268536388874054e-02, 1.466297954320907593e-01, 1.658317595720291138e-01, -3.308483362197875977e-01},
{-2.507539987564086914e-01, -1.854333728551864624e-01, -1.934345513582229614e-01, -2.791451811790466309e-01, -5.549838393926620483e-02},
{2.564676292240619659e-02, -7.644663006067276001e-02, 2.164249718189239502e-01, 1.103232875466346741e-01, 3.501342609524726868e-02},
{-3.646989166736602783e-02, -1.577087491750717163e-01, 8.599139750003814697e-02, 2.483932822942733765e-01, 5.734828114509582520e-01},
{1.629017591476440430e-01, -3.039803504943847656e-01, -9.593366980552673340e-01, -3.063420020043849945e-02, -3.233155906200408936e-01},
{7.695917040109634399e-02, 4.047081992030143738e-02, 3.503163158893585205e-01, 2.536769509315490723e-01, -5.980355199426412582e-03},
{-5.258281230926513672e-01, 2.758956551551818848e-01, 4.194033145904541016e-01, 2.223534584045410156e-01, -5.370782315731048584e-02},
{1.014381647109985352e-01, 1.981646418571472168e-01, -3.612065017223358154e-01, 1.224596500396728516e-01, 2.631784081459045410e-01},
};

float b0[32] = {
-5.860998108983039856e-02,
-1.152712758630514145e-02,
5.006678402423858643e-02,
-4.902626574039459229e-02,
-1.662354543805122375e-02,
-2.706941775977611542e-02,
2.120907651260495186e-03,
-3.270153701305389404e-02,
7.991147786378860474e-02,
3.697037696838378906e-02,
-7.938817143440246582e-02,
-8.491071313619613647e-02,
-4.271803796291351318e-02,
3.804864361882209778e-02,
-3.010410815477371216e-03,
-8.217185735702514648e-02,
-3.712380677461624146e-02,
2.600073441863059998e-02,
7.821257412433624268e-02,
9.163155220448970795e-03,
-1.564169861376285553e-02,
8.888328447937965393e-03,
1.167935505509376526e-02,
4.432613402605056763e-02,
8.328459411859512329e-02,
-3.101271390914916992e-02,
9.241981804370880127e-02,
1.580444872379302979e-01,
8.427132666110992432e-02,
8.416818454861640930e-03,
4.731689020991325378e-02,
-7.005380839109420776e-02,
};

float w1[32][32] = {
{-1.813228577375411987e-01, 5.625419318675994873e-02, 6.633645296096801758e-02, 5.647798180580139160e-01, 1.482101976871490479e-01, -2.266511619091033936e-01, -3.571202456951141357e-01, 1.476785093545913696e-01, -6.231734529137611389e-02, 7.394608110189437866e-02, -3.761258125305175781e-01, 5.868312716484069824e-01, 2.787036597728729248e-01, -1.143303960561752319e-01, -1.932062506675720215e-01, -2.756900191307067871e-01, -3.447024524211883545e-01, 1.726797819137573242e-01, 4.432595372200012207e-01, -1.958579756319522858e-02, -1.230872049927711487e-02, -3.778198361396789551e-01, 2.184014394879341125e-02, 1.456997692584991455e-01, -4.159954190254211426e-02, -4.256766736507415771e-01, 1.634490936994552612e-01, 1.827646940946578979e-01, 2.629937790334224701e-02, -2.461740821599960327e-01, 1.149698048830032349e-01, -3.768248260021209717e-01},
{3.043850958347320557e-01, -3.168416023254394531e-02, 1.116576939821243286e-01, 2.108657062053680420e-01, 5.992823243141174316e-01, 3.695183098316192627e-01, 4.795576333999633789e-01, 5.381435751914978027e-01, 4.318390190601348877e-01, -8.367288112640380859e-02, 6.952435523271560669e-02, 1.130953896790742874e-02, -4.911484122276306152e-01, -2.454940378665924072e-01, 1.088621467351913452e-01, -5.775400996208190918e-01, 1.259941458702087402e-01, 7.189992815256118774e-02, 7.533910125494003296e-02, 1.091788649559020996e+00, -1.878463476896286011e-02, 5.222116410732269287e-02, -2.861287817358970642e-02, 1.209471523761749268e-01, -2.604534029960632324e-01, 1.073907092213630676e-01, -1.426554024219512939e-01, 1.955016553401947021e-01, -3.908426761627197266e-01, -8.455616421997547150e-03, 4.430410265922546387e-01, -3.458594977855682373e-01},
{-8.208934962749481201e-02, 2.905280292034149170e-01, -3.062019050121307373e-01, 2.927599847316741943e-01, -3.663043677806854248e-01, 1.942202299833297729e-01, -9.908249974250793457e-02, -2.619061060249805450e-02, 2.510968968272209167e-02, -6.026813387870788574e-01, 1.758401282131671906e-03, 1.727056205272674561e-01, -6.935522705316543579e-02, -1.028521209955215454e-01, 1.266810670495033264e-02, -1.056585460901260376e-01, 3.441752791404724121e-01, -3.220808804035186768e-01, -3.257676362991333008e-01, -1.109969466924667358e-01, 3.501463234424591064e-01, 3.075836002826690674e-01, 3.292616605758666992e-01, -2.431287616491317749e-01, -6.220414638519287109e-01, -6.077703833580017090e-01, 9.435671381652355194e-03, -5.455593764781951904e-02, -3.553415834903717041e-02, 2.682376205921173096e-01, 3.255037963390350342e-01, 8.634822070598602295e-02},
{1.354614924639463425e-02, -3.231849968433380127e-01, -2.512444257736206055e-01, 4.397297799587249756e-01, -3.436213135719299316e-01, -7.365808635950088501e-02, 1.446447074413299561e-01, -2.984922565519809723e-02, 2.356879413127899170e-01, 3.372896313667297363e-01, -1.238744258880615234e-01, -6.438845396041870117e-02, -1.795425564050674438e-01, 1.674969643354415894e-01, 9.031349420547485352e-02, 2.652726471424102783e-01, -3.275449275970458984e-01, -5.130153298377990723e-01, -4.887229502201080322e-01, -4.180136322975158691e-02, -1.592500209808349609e-01, -9.003472328186035156e-02, 1.005805656313896179e-01, -5.274503827095031738e-01, -2.185423858463764191e-02, 2.204469293355941772e-01, -4.102798551321029663e-02, 3.258007764816284180e-01, -1.419841945171356201e-01, -1.860255002975463867e-01, -3.106348402798175812e-02, 8.450533449649810791e-02},
{9.265437722206115723e-02, -2.492696046829223633e-01, -8.198827505111694336e-01, -3.441560566425323486e-01, -1.120275706052780151e-01, 1.108516007661819458e-01, -4.221006631851196289e-01, -7.375345230102539062e-01, -6.226025223731994629e-01, 3.178234696388244629e-01, -2.329187691211700439e-01, 4.209641218185424805e-01, -1.268870532512664795e-01, -6.944594532251358032e-02, -1.791194975376129150e-01, 7.557678818702697754e-01, -5.451381206512451172e-01, -3.779291510581970215e-01, 9.059818834066390991e-02, -1.568283885717391968e-01, 4.663126766681671143e-01, -2.345976531505584717e-01, -7.818347215652465820e-02, 3.533398509025573730e-01, 2.292769104242324829e-01, 9.291780740022659302e-02, -3.235763907432556152e-01, -3.174347579479217529e-01, 1.221565753221511841e-01, -1.948516666889190674e-01, -1.911310702562332153e-01, 6.651520729064941406e-02},
{-8.844741433858871460e-02, -8.849997073411941528e-02, -2.586001344025135040e-02, -3.261937499046325684e-01, -4.299150407314300537e-01, -2.992619276046752930e-01, 1.340716779232025146e-01, -6.314419955015182495e-02, -2.934583276510238647e-02, 4.490254074335098267e-02, 3.819598257541656494e-02, 3.020461499691009521e-01, -2.817135453224182129e-01, -2.735814750194549561e-01, -1.558806896209716797e-01, -2.569223344326019287e-01, -2.541451752185821533e-01, 1.313590109348297119e-01, 1.783593147993087769e-01, -3.923345357179641724e-02, -5.417339801788330078e-01, 1.813499629497528076e-01, -2.610031366348266602e-01, -6.799464672803878784e-02, 4.770700335502624512e-01, -3.239969015121459961e-01, -4.001923501491546631e-01, 3.578630462288856506e-02, -2.840920686721801758e-01, 2.502084672451019287e-01, 4.910998940467834473e-01, -2.191476225852966309e-01},
{3.792796730995178223e-01, -6.620772182941436768e-02, -9.409281611442565918e-02, 1.359863430261611938e-01, -8.652362972497940063e-02, -6.925486028194427490e-02, -7.238875329494476318e-02, 4.373407363891601562e-01, -2.738316357135772705e-01, 5.304959788918495178e-02, 1.334507614374160767e-01, -2.713848054409027100e-01, -7.342370226979255676e-03, 7.134183496236801147e-02, 2.764608263969421387e-01, -1.163620278239250183e-01, -2.056913971900939941e-01, 3.655906021595001221e-01, 1.487605739384889603e-03, -5.430101752281188965e-01, -3.206139430403709412e-03, -1.185481697320938110e-01, 3.270727097988128662e-01, 2.865122556686401367e-01, 3.499490022659301758e-02, 1.821021437644958496e-01, -2.164175659418106079e-01, -1.735988110303878784e-01, -3.538896143436431885e-01, -4.710952043533325195e-01, 4.143536090850830078e-01, -3.997633457183837891e-01},
{3.386451676487922668e-02, -5.768366623669862747e-03, -2.492949217557907104e-01, -1.809021830558776855e-02, 8.402744680643081665e-02, -4.374141693115234375e-01, 1.493564527481794357e-02, 4.732165634632110596e-01, -1.416000276803970337e-01, 2.861694097518920898e-01, 3.274897038936614990e-01, -5.235787853598594666e-02, -1.567175984382629395e-01, -4.613098502159118652e-01, 1.526201814413070679e-01, 2.773978114128112793e-01, -4.897349327802658081e-02, -1.187618970870971680e-01, -5.097069963812828064e-02, 1.869678050279617310e-01, -2.343713045120239258e-01, 4.855424761772155762e-01, 3.368494510650634766e-01, -8.302988717332482338e-04, -1.482695341110229492e-01, -3.936618939042091370e-02, 4.461256563663482666e-01, 7.396943122148513794e-02, 5.482716113328933716e-02, 1.972103714942932129e-01, -6.015755534172058105e-01, -2.976984381675720215e-01},
{5.235299468040466309e-02, 4.298310377635061741e-04, -1.826155036687850952e-01, 9.651759266853332520e-02, -4.226081073284149170e-01, 3.508368432521820068e-01, -4.921421408653259277e-02, -5.287508293986320496e-02, 2.458267807960510254e-01, 1.302406638860702515e-01, 2.346951812505722046e-01, -4.002694487571716309e-01, 6.963126361370086670e-02, 4.576163291931152344e-01, -2.965939342975616455e-01, -3.855825662612915039e-01, -3.834798932075500488e-01, -1.810248643159866333e-01, -6.173878163099288940e-02, 6.856054998934268951e-03, 1.152726411819458008e-01, 5.017357468605041504e-01, -3.014052808284759521e-01, 3.395312428474426270e-01, 8.308561146259307861e-02, -4.821814596652984619e-01, 7.235416769981384277e-02, 2.542584203183650970e-02, 4.927310645580291748e-01, -1.051013916730880737e-01, -2.788024246692657471e-01, -3.570971786975860596e-01},
{4.432377219200134277e-01, -3.589097857475280762e-01, -5.255429074168205261e-02, 1.514745205640792847e-01, 1.240172237157821655e-01, 6.124981120228767395e-02, 1.390246488153934479e-02, -1.649416089057922363e-01, -3.042161464691162109e-02, -2.593149617314338684e-02, -3.277621865272521973e-01, 3.711874485015869141e-01, -1.193684116005897522e-01, -2.926186025142669678e-01, 9.294091910123825073e-02, 1.885372698307037354e-01, -7.357984315603971481e-03, 5.164310336112976074e-01, 9.892503172159194946e-02, -5.467826128005981445e-01, 2.123215943574905396e-01, 4.615263044834136963e-01, -4.531812369823455811e-01, 2.310999296605587006e-02, 1.424948405474424362e-02, 2.619663476943969727e-01, 2.426665648818016052e-02, 3.297706842422485352e-01, 1.764992028474807739e-01, 1.301954388618469238e-01, 5.152332410216331482e-02, -1.251122504472732544e-01},
{-1.480859071016311646e-01, 4.532008469104766846e-01, -1.417600810527801514e-01, 1.426619887351989746e-01, 2.223148345947265625e-01, -1.057670637965202332e-01, 1.324455738067626953e-01, 1.749190688133239746e-01, -1.492465659976005554e-02, -1.132255978882312775e-02, -2.848845124244689941e-01, -9.135767817497253418e-02, -4.530271589756011963e-01, 2.543882429599761963e-01, -2.588109970092773438e-01, 6.597067415714263916e-02, -2.694048285484313965e-01, 7.289553284645080566e-01, -5.258962512016296387e-01, 1.230436842888593674e-02, -1.344151347875595093e-01, -1.074568852782249451e-01, -4.023832082748413086e-02, -3.197409510612487793e-01, -5.517191290855407715e-01, -1.682184934616088867e-01, -2.448415607213973999e-01, -9.083731472492218018e-02, 1.133259609341621399e-01, 1.208895817399024963e-01, -2.452989220619201660e-01, 4.508171081542968750e-01},
{3.277920484542846680e-01, 6.730801612138748169e-02, 5.875675082206726074e-01, 1.249851658940315247e-01, -2.221202850341796875e-01, -4.751055687665939331e-02, 1.385352201759815216e-02, -2.199814654886722565e-02, 6.333816051483154297e-01, -1.681821197271347046e-01, -1.942438185214996338e-01, 2.540513277053833008e-01, -6.148707494139671326e-02, 2.207467518746852875e-02, 4.036849364638328552e-02, 2.658179700374603271e-01, -1.838062331080436707e-02, -7.669219374656677246e-02, -6.137546896934509277e-01, 1.245029121637344360e-01, -7.992650382220745087e-03, -4.273868352174758911e-02, 1.180054247379302979e-01, 4.982978105545043945e-01, 3.088656440377235413e-02, -1.743625551462173462e-01, 9.452451765537261963e-02, -3.868019878864288330e-01, -1.174940839409828186e-01, 2.591929137706756592e-01, -1.566526442766189575e-01, -1.437070220708847046e-01},
{-3.499242290854454041e-02, 4.481859803199768066e-01, -2.380614876747131348e-01, -2.147221751511096954e-02, -4.007308185100555420e-01, 3.348883986473083496e-01, 2.875550091266632080e-01, 5.167324095964431763e-03, 3.061901330947875977e-01, -1.191013380885124207e-01, -1.620190590620040894e-01, 1.468657404184341431e-01, -9.524875879287719727e-02, -7.142043858766555786e-02, 2.917911112308502197e-01, -2.524211406707763672e-01, 3.972235694527626038e-02, 5.241655707359313965e-01, 1.115982607007026672e-02, 6.805598735809326172e-02, 4.098338484764099121e-01, 8.874669671058654785e-02, 2.097574472427368164e-01, -1.528322994709014893e-01, 1.565646827220916748e-01, -3.305592238903045654e-01, 4.636798501014709473e-01, 1.173814088106155396e-01, -5.798893570899963379e-01, -1.810180991888046265e-01, -3.378334045410156250e-01, 6.381387710571289062e-01},
{-4.432884752750396729e-01, 4.209192395210266113e-01, -4.556901752948760986e-01, -2.949737012386322021e-01, 5.537067074328660965e-03, -7.099091261625289917e-02, -8.527851104736328125e-02, 4.405681192874908447e-01, 2.720305621623992920e-01, -2.092641741037368774e-01, -5.390068888664245605e-01, 1.097252741456031799e-01, 1.091043651103973389e-01, 1.908425390720367432e-01, 5.234658122062683105e-01, 1.823376715183258057e-01, 1.743726246058940887e-02, -1.474352180957794189e-01, -1.292007416486740112e-01, -4.339219070971012115e-03, -7.454776018857955933e-02, 1.776501834392547607e-01, -1.487449556589126587e-01, 1.523309797048568726e-01, 1.548061221837997437e-01, 3.722638785839080811e-01, -1.383114010095596313e-01, 3.388347476720809937e-02, 2.750022411346435547e-01, -1.099056657403707504e-02, 4.224091768264770508e-02, -1.985143274068832397e-01},
{1.278773183003067970e-03, -6.527601182460784912e-02, 3.755220770835876465e-01, -3.699906468391418457e-01, -3.151473701000213623e-01, -3.057534694671630859e-01, 1.883484572172164917e-01, 2.633855044841766357e-01, -3.796604275703430176e-01, -2.981496043503284454e-02, -5.193559080362319946e-02, 5.403779745101928711e-01, 4.467124491930007935e-02, 5.428619310259819031e-02, -1.369048357009887695e-01, -2.972250580787658691e-01, -3.886862397193908691e-01, -1.350526064634323120e-01, 1.359129548072814941e-01, -9.074719250202178955e-02, 1.443416625261306763e-01, 3.509243130683898926e-01, -1.278049051761627197e-01, 1.647007018327713013e-01, -4.072432816028594971e-01, 3.696637451648712158e-01, 5.172479897737503052e-02, -5.381663516163825989e-02, 1.244927793741226196e-01, -5.626675486564636230e-01, 1.702044606208801270e-01, 3.012317121028900146e-01},
{-8.995627611875534058e-02, -5.821976810693740845e-02, 5.500289201736450195e-01, 5.590132623910903931e-02, 3.580763339996337891e-01, 2.815395593643188477e-01, 8.892094343900680542e-02, 6.206565499305725098e-01, -8.883861452341079712e-02, -3.519693017005920410e-01, 1.558123230934143066e-01, -1.676761545240879059e-02, -7.754038274288177490e-02, 7.025067806243896484e-01, -1.623000949621200562e-02, -1.852743029594421387e-01, 2.177914679050445557e-01, 7.081066817045211792e-02, -1.363428402692079544e-02, 5.221152305603027344e-01, -3.058583736419677734e-01, 4.092654287815093994e-01, -9.372485429048538208e-02, 8.325011283159255981e-02, -7.597012817859649658e-02, -2.913194298744201660e-01, 1.324595212936401367e-01, 4.364629387855529785e-01, -1.015422463417053223e+00, 1.829502731561660767e-01, -1.281923651695251465e-01, -4.076130092144012451e-01},
{8.520820736885070801e-02, 5.169912576675415039e-01, -3.302386105060577393e-01, -2.200208753347396851e-01, -5.894181132316589355e-01, -1.944791078567504883e-01, -8.083363771438598633e-01, -8.924983143806457520e-01, -8.390606939792633057e-02, 8.760072290897369385e-02, 4.519135877490043640e-02, 4.095873609185218811e-02, 4.267503321170806885e-01, -2.995417416095733643e-01, -2.833666801452636719e-01, 6.553199291229248047e-01, -1.680137664079666138e-01, 1.433366835117340088e-01, -1.444859206676483154e-01, -5.622312426567077637e-02, 6.080997735261917114e-02, 4.408209770917892456e-02, -7.564108818769454956e-02, -2.390106022357940674e-02, -1.961863934993743896e-01, 4.237775802612304688e-01, -2.941930890083312988e-01, 3.299136757850646973e-01, 1.172567829489707947e-01, -4.521818757057189941e-01, -7.867179065942764282e-02, 7.083942741155624390e-02},
{1.609469056129455566e-01, 5.829931795597076416e-02, 2.073471546173095703e-01, -1.268407255411148071e-01, -5.696094036102294922e-02, 2.835728824138641357e-01, -4.084719419479370117e-01, 1.116266697645187378e-01, 2.295421361923217773e-01, -1.374640502035617828e-02, 2.527201771736145020e-01, 1.180713344365358353e-02, 5.568848550319671631e-02, 5.009798407554626465e-01, 3.401693403720855713e-01, -2.508552968502044678e-01, -4.644439816474914551e-01, 1.631630659103393555e-01, 1.122449859976768494e-01, 2.592387497425079346e-01, 2.772397398948669434e-01, 1.265745311975479126e-01, 1.599963307380676270e-01, -3.820678889751434326e-01, -1.697714626789093018e-01, -2.982384711503982544e-02, 3.480487465858459473e-01, 2.819354878738522530e-03, 2.069737389683723450e-02, 7.511108517646789551e-01, 3.519711494445800781e-01, -2.514756657183170319e-02},
{-4.419667720794677734e-01, -3.732858002185821533e-01, 5.005964264273643494e-02, 5.698449611663818359e-01, -1.258559152483940125e-02, -1.326292306184768677e-01, 6.925898790359497070e-02, 1.957133263349533081e-01, -1.685187965631484985e-01, -2.140902131795883179e-01, 1.424846798181533813e-01, 3.011602722108364105e-02, 1.127254068851470947e-01, -1.657611280679702759e-01, -1.780737540684640408e-03, -4.564112424850463867e-01, -1.829683221876621246e-02, 3.001838736236095428e-02, 1.387642174959182739e-01, 3.087794780731201172e-02, -7.604137994349002838e-03, 1.115386784076690674e-01, -4.852477312088012695e-01, 2.466986030340194702e-01, -4.815600439906120300e-02, 6.125847101211547852e-01, -2.291685640811920166e-01, -2.276359796524047852e-01, -3.981435894966125488e-01, 1.845181137323379517e-01, -2.415318936109542847e-01, -2.973017096519470215e-02},
{-2.142160683870315552e-01, 1.850956827402114868e-01, 3.099182546138763428e-01, 2.065747380256652832e-01, 1.162544339895248413e-01, 2.355855852365493774e-01, -3.625598847866058350e-01, 1.108542606234550476e-01, 4.915948808193206787e-01, -7.680308818817138672e-02, -2.294406443834304810e-01, -2.378589063882827759e-01, -5.525042414665222168e-01, -1.020871624350547791e-01, 2.065299749374389648e-01, 2.198946475982666016e-01, -9.262473881244659424e-02, -4.135773703455924988e-02, 5.639101862907409668e-01, -1.876713782548904419e-01, -2.822998724877834320e-02, 5.157225131988525391e-01, 3.367888927459716797e-01, -5.742892250418663025e-02, -2.155332863330841064e-01, -2.795153856277465820e-01, -3.268389999866485596e-01, -6.051556766033172607e-02, -1.311325728893280029e-01, -2.045114040374755859e-01, -8.165839826688170433e-04, 6.270675063133239746e-01},
{-4.823517203330993652e-01, -1.059655323624610901e-01, 1.490051597356796265e-01, -1.005588993430137634e-01, 4.413422569632530212e-02, -2.691957950592041016e-01, -7.402346283197402954e-02, -3.167584836483001709e-01, 4.914555326104164124e-02, -3.209937810897827148e-01, -6.117950752377510071e-02, 1.140036210417747498e-01, -7.180930972099304199e-01, 3.488913550972938538e-02, -2.963467240333557129e-01, -2.117850929498672485e-01, -4.421411454677581787e-02, 2.572139799594879150e-01, 6.575956940650939941e-02, -2.195827960968017578e-01, 5.126847028732299805e-01, -7.112428545951843262e-02, 4.981454908847808838e-01, -6.490664184093475342e-02, 2.277036011219024658e-01, 3.882501125335693359e-01, -1.094121299684047699e-02, 2.004533708095550537e-01, -7.686597295105457306e-03, -1.663645058870315552e-01, -1.359216030687093735e-02, -4.084282815456390381e-01},
{3.601501882076263428e-01, 3.301646411418914795e-01, -1.204656288027763367e-01, 2.137836441397666931e-02, -9.144660830497741699e-02, 9.032812714576721191e-02, -2.416750639677047729e-01, -1.339367032051086426e-01, -1.701085567474365234e-01, -5.445768237113952637e-01, 4.607570916414260864e-02, -2.340353876352310181e-01, -6.012707948684692383e-01, -2.086885832250118256e-02, 8.898782730102539062e-02, -1.304444670677185059e-01, -8.379895240068435669e-02, -2.841354310512542725e-01, 6.363278627395629883e-02, -8.133456856012344360e-02, -4.637051224708557129e-01, -4.994710683822631836e-01, -3.967772722244262695e-01, 1.209131553769111633e-01, -6.967743486166000366e-02, 8.732290565967559814e-02, 6.494163274765014648e-01, 7.452467828989028931e-02, 3.407501056790351868e-02, 6.151250749826431274e-02, -6.836710870265960693e-02, 3.358130529522895813e-02},
{-4.524719901382923126e-03, -6.152896881103515625e-01, -3.446268383413553238e-03, -1.402998622506856918e-02, -2.162978053092956543e-01, -7.574900984764099121e-02, -4.063666760921478271e-01, 4.613652527332305908e-01, -8.135316520929336548e-02, -4.524984061717987061e-01, -2.076766043901443481e-01, -2.743905484676361084e-01, 1.302253361791372299e-02, -5.982938036322593689e-02, -6.924571935087442398e-03, 2.065915763378143311e-01, 1.296401768922805786e-01, 1.736979633569717407e-01, -2.543084025382995605e-01, 5.219495296478271484e-01, 3.394632041454315186e-02, -4.593176394701004028e-02, -5.725690722465515137e-02, -1.471437066793441772e-01, 3.794571459293365479e-01, -2.322709113359451294e-01, 1.353956758975982666e-01, 1.030943468213081360e-01, 2.555639147758483887e-01, -1.483573615550994873e-01, 3.789773210883140564e-02, 2.622685730457305908e-01},
{-5.718368291854858398e-01, -2.037879675626754761e-01, -3.058439493179321289e-01, 2.134802937507629395e-01, 3.495140001177787781e-02, 1.812306493520736694e-01, 3.197624087333679199e-01, -4.919718503952026367e-01, 2.060788720846176147e-01, -1.056637987494468689e-01, 1.843606233596801758e-01, 1.292902529239654541e-01, -3.840986266732215881e-02, 1.852670609951019287e-01, 2.470927685499191284e-01, 5.278676152229309082e-01, -7.385949790477752686e-02, 3.476154506206512451e-01, -1.089555770158767700e-01, 1.626482605934143066e-01, -5.207169055938720703e-01, -7.744645327329635620e-02, 4.513016045093536377e-01, 4.523652195930480957e-01, -2.060344219207763672e-01, 2.063038013875484467e-02, 4.105383753776550293e-01, 6.595971435308456421e-02, 1.210713610053062439e-01, 4.537406936287879944e-02, 3.993678987026214600e-01, 4.130452275276184082e-01},
{-2.334534190595149994e-02, 1.525065302848815918e-01, 3.744736611843109131e-01, 2.812273800373077393e-01, 4.577314853668212891e-01, 5.921524763107299805e-01, 2.432792633771896362e-01, 6.703349351882934570e-01, -8.228400349617004395e-02, -2.264232933521270752e-02, -5.543831586837768555e-01, -4.187343120574951172e-01, -6.925224512815475464e-02, -3.488276153802871704e-02, -3.776047527790069580e-01, -5.933598279953002930e-01, 1.109800189733505249e-01, -1.473534759134054184e-02, -2.947471737861633301e-01, 4.545984268188476562e-01, -3.882301151752471924e-01, 4.821704924106597900e-01, 4.720468819141387939e-01, 1.211733072996139526e-01, 1.044357866048812866e-01, 8.035974204540252686e-02, 4.825358688831329346e-01, -1.765187084674835205e-02, -5.793845653533935547e-01, 5.898041725158691406e-01, 3.757221102714538574e-01, 6.856600195169448853e-02},
{-3.115561604499816895e-01, 1.262578070163726807e-01, 2.839090228080749512e-01, 5.921459943056106567e-02, -2.701731026172637939e-01, -1.008497998118400574e-01, 5.233899950981140137e-01, 1.783101260662078857e-01, -2.223558872938156128e-01, 2.410855442285537720e-01, -3.089627027511596680e-01, -4.805832207202911377e-01, -2.353142648935317993e-01, -8.286434412002563477e-02, 1.453390121459960938e-01, 5.853429436683654785e-01, 6.605613231658935547e-02, 2.843003347516059875e-02, 1.782583743333816528e-01, 2.171765863895416260e-01, 3.707433640956878662e-01, -2.938338220119476318e-01, -1.463605910539627075e-01, 2.701061069965362549e-01, -2.517599165439605713e-01, -1.122587621212005615e-01, 1.011538580060005188e-01, 3.715865612030029297e-01, -8.616212010383605957e-02, 3.002235889434814453e-01, 2.865611612796783447e-01, -7.043027877807617188e-02},
{7.323031127452850342e-02, 1.544604171067476273e-02, -6.549732089042663574e-01, -1.704403758049011230e-01, -6.754502654075622559e-01, -2.182505130767822266e-01, -6.526230573654174805e-01, -1.155294701457023621e-01, 1.906855404376983643e-01, 5.764878392219543457e-01, 2.757741510868072510e-01, 4.559195935726165771e-01, -3.923953697085380554e-02, 2.113976180553436279e-01, -8.461531400680541992e-01, 6.553130745887756348e-01, 3.561702072620391846e-01, -5.332959443330764771e-02, 2.843215465545654297e-01, -5.512846112251281738e-01, 2.701366841793060303e-01, -2.368267327547073364e-01, -3.765035569667816162e-01, 4.445695132017135620e-02, 1.057652160525321960e-01, 3.373918831348419189e-01, 1.213273778557777405e-01, -2.469669729471206665e-01, 3.931424021720886230e-01, -2.711821496486663818e-01, 1.311421394348144531e-01, 1.421485096216201782e-01},
{5.414161086082458496e-01, 2.978128194808959961e-01, -1.432647705078125000e-01, 3.215843737125396729e-01, -4.152320623397827148e-01, -1.119236350059509277e-01, 2.450276762247085571e-01, 3.748959675431251526e-02, 1.739578545093536377e-01, -4.222183227539062500e-01, -9.619548171758651733e-02, -6.303586810827255249e-02, 2.020470947027206421e-01, 3.895454406738281250e-01, -2.537358403205871582e-01, 4.232586920261383057e-02, -5.501134693622589111e-02, -1.054581105709075928e-01, 5.368537306785583496e-01, 2.739630341529846191e-01, -3.165953559800982475e-03, 2.129528485238552094e-02, 5.351570844650268555e-01, 3.710972145199775696e-02, 2.123815715312957764e-01, 4.619744420051574707e-02, -2.007856070995330811e-01, 2.185032963752746582e-01, 2.400402575731277466e-01, 4.999599158763885498e-01, -1.694614142179489136e-01, 1.597953736782073975e-01},
{-5.840143561363220215e-02, 1.648035049438476562e-01, 4.661942720413208008e-01, 5.412088036537170410e-01, 1.808431893587112427e-01, 4.446307942271232605e-02, 3.910423517227172852e-01, 1.346020251512527466e-01, -1.140135303139686584e-01, 1.543865650892257690e-01, -4.533648490905761719e-01, -1.537811756134033203e-01, -3.583551347255706787e-01, 3.531281054019927979e-01, 6.129425764083862305e-01, -4.925989210605621338e-01, 4.655570685863494873e-01, 2.544714212417602539e-01, 6.443663686513900757e-02, 8.983169198036193848e-01, -2.964950501918792725e-01, 4.820032119750976562e-01, 1.727392971515655518e-01, -2.855395376682281494e-01, -4.322234541177749634e-03, -8.486586064100265503e-02, 2.668117582798004150e-01, -4.815697968006134033e-01, -3.483761847019195557e-01, 9.695017337799072266e-02, 2.363958656787872314e-01, -3.110970556735992432e-01},
{4.951215088367462158e-01, 1.240128874778747559e-01, 2.973377406597137451e-01, 3.877028524875640869e-01, 5.755341053009033203e-01, -7.977388501167297363e-01, -6.402374058961868286e-02, 4.558125734329223633e-01, 9.939906001091003418e-02, -1.357111930847167969e-01, 2.155975550413131714e-01, -4.529099166393280029e-01, -1.428158283233642578e-01, 5.559393763542175293e-01, 6.253357976675033569e-02, -7.978017330169677734e-01, 1.108592525124549866e-01, -3.311643004417419434e-01, -2.330482006072998047e-01, 6.379147171974182129e-01, 1.468578875064849854e-01, 6.490166783332824707e-01, -2.120242118835449219e-01, 2.695988416671752930e-01, 3.515345156192779541e-01, -4.094365537166595459e-01, 3.162075877189636230e-01, 1.350767910480499268e-01, -3.831675946712493896e-01, 3.381756246089935303e-01, 3.363285958766937256e-01, 1.750050634145736694e-01},
{-4.118460789322853088e-02, -1.065451800823211670e-01, -6.708304584026336670e-02, -7.269328832626342773e-02, -2.604555785655975342e-01, 5.424721539020538330e-02, -2.721277773380279541e-01, 8.117138594388961792e-02, -2.106450498104095459e-01, 4.542773067951202393e-01, -5.030627548694610596e-02, 1.230732128024101257e-01, -2.887266278266906738e-01, 1.644510775804519653e-01, 4.240128993988037109e-01, -2.582367956638336182e-01, 5.857064723968505859e-01, 9.324956685304641724e-02, -3.856113553047180176e-01, 6.222143769264221191e-02, -2.468363493680953979e-01, -1.138950958847999573e-01, 2.980756759643554688e-01, 4.751551449298858643e-01, -2.339256405830383301e-01, -2.865842916071414948e-02, -3.432890772819519043e-01, 4.048219621181488037e-01, 2.054688185453414917e-01, 1.968005895614624023e-01, -3.129834830760955811e-01, 3.257870376110076904e-01},
{-1.323498785495758057e-01, 5.261287689208984375e-01, 3.489604592323303223e-01, 4.867197871208190918e-01, -6.961548328399658203e-02, 4.377433061599731445e-01, 4.089119378477334976e-03, 1.296587586402893066e-01, -4.297103583812713623e-01, -1.187931746244430542e-01, 5.812133550643920898e-01, 4.498901963233947754e-01, -1.644265353679656982e-01, -1.542859226465225220e-01, -2.350839599967002869e-02, 1.621062457561492920e-01, -1.765439808368682861e-01, 1.370884478092193604e-01, -7.370026409626007080e-02, -3.904196992516517639e-02, 1.703344732522964478e-01, 8.530237525701522827e-02, -7.876088470220565796e-02, -5.592928826808929443e-02, 5.946245789527893066e-01, 4.946388304233551025e-02, -1.689051240682601929e-01, -1.295754127204418182e-02, 3.094946444034576416e-01, -1.528979241847991943e-01, 2.008336037397384644e-01, 2.911793813109397888e-02},
};

float b1[32] = {
3.180420026183128357e-02,
-2.550340816378593445e-02,
-1.023874878883361816e-01,
-9.674329310655593872e-03,
-4.897528141736984253e-02,
5.505608022212982178e-02,
3.112937847618013620e-04,
-3.342309966683387756e-02,
9.526169300079345703e-02,
3.623460233211517334e-02,
-1.100851520895957947e-01,
-6.887643784284591675e-02,
5.489160306751728058e-03,
-5.767788738012313843e-02,
1.585341989994049072e-02,
-1.652181521058082581e-02,
2.520995214581489563e-02,
9.381251037120819092e-02,
2.002954483032226562e-02,
5.272605270147323608e-02,
8.039603382349014282e-02,
1.584930112585425377e-03,
-2.330010011792182922e-02,
-7.132429745979607105e-04,
2.498863637447357178e-02,
6.339418888092041016e-02,
-7.631074171513319016e-03,
3.831047331914305687e-03,
4.690436646342277527e-02,
-8.411712944507598877e-03,
-5.595920607447624207e-02,
7.338756695389747620e-03,
};

float w2[1][32] = {
{1.166234388947486877e-01, 9.286197274923324585e-02, -1.221438199281692505e-01, -6.130015477538108826e-02, -7.895483821630477905e-02, 1.000777259469032288e-01, 5.093685537576675415e-02, -4.489462822675704956e-02, 5.089001357555389404e-02, 1.835345523431897163e-03, -7.997880876064300537e-02, -2.195616252720355988e-02, -1.151271089911460876e-01, -3.130357479676604271e-03, 1.151858717203140259e-01, 6.931503862142562866e-02, -6.119075417518615723e-02, -3.646769374608993530e-02, 1.516944468021392822e-01, -7.917281985282897949e-02, 1.473145782947540283e-01, -3.245543921366333961e-04, -2.153801172971725464e-02, -1.784131377935409546e-01, 1.217472925782203674e-01, -5.579442903399467468e-02, -1.186975836753845215e-01, -9.989114105701446533e-02, 6.196558102965354919e-02, 1.479737311601638794e-01, -9.810020774602890015e-02, 9.308676421642303467e-02},
};

float b2[1] = {
4.155726730823516846e-02,
};

int shape[4] = {5,32,32,1,};
float *weights[3] = {w0[0],w1[0],w2[0],};
float *biases[3] = {b0,b1,b2,};
