float w0[64][8] = {
{2.588384225964546204e-02, -9.473018348217010498e-02, 2.254581600427627563e-01, -3.846190869808197021e-01, -2.416117191314697266e-01, -1.910287737846374512e-01, -2.728956378996372223e-02, 3.337196111679077148e-01},
{2.309972941875457764e-01, -3.435712456703186035e-01, 3.378991186618804932e-01, -2.105101644992828369e-01, -2.946105301380157471e-01, 1.127595454454421997e-01, -5.618481040000915527e-01, -2.376947402954101562e-01},
{-2.754397392272949219e-01, 1.519368290901184082e-01, -8.570209741592407227e-01, -1.116086766123771667e-01, 3.218743205070495605e-02, -2.258072048425674438e-01, -7.230504602193832397e-02, 1.214941740036010742e-01},
{-3.913740515708923340e-01, 4.143536686897277832e-01, -8.181365728378295898e-01, -1.926519558764994144e-03, 1.860536187887191772e-01, 2.337639927864074707e-01, 2.734445407986640930e-02, -9.153711795806884766e-02},
{-2.575843129307031631e-03, 1.875393986701965332e-01, -2.660313546657562256e-01, 5.041776597499847412e-02, 1.114751845598220825e-01, 7.807996124029159546e-02, 4.032015427947044373e-02, -2.092273533344268799e-01},
{-3.995516300201416016e-01, -1.021364033222198486e-01, -6.380020976066589355e-01, -4.221467971801757812e-01, -5.479170083999633789e-01, -2.257023900747299194e-01, 2.907687425613403320e-02, 5.667974799871444702e-02},
{-1.464876532554626465e-01, 1.839451640844345093e-01, -1.201113387942314148e-01, -6.574269849807024002e-03, -2.337597310543060303e-01, 2.598483264446258545e-01, 3.748254776000976562e-01, 1.300736069679260254e-01},
{3.228845894336700439e-01, 2.922322452068328857e-01, 8.726073801517486572e-02, 6.490373611450195312e-01, 2.136937528848648071e-01, -7.504861801862716675e-02, 1.975923180580139160e-01, 2.640296518802642822e-02},
{-2.705497443675994873e-01, -1.211029849946498871e-02, 2.188221961259841919e-01, 4.430740475654602051e-01, 7.602054625749588013e-02, -1.149161383509635925e-01, -1.724704951047897339e-01, 1.617270559072494507e-01},
{2.900448143482208252e-01, -1.133818104863166809e-01, 6.699257493019104004e-01, 1.982337981462478638e-01, 3.418844342231750488e-01, -2.709203362464904785e-01, -2.669309377670288086e-01, 1.387399435043334961e-02},
{5.386995673179626465e-01, 1.227771788835525513e-01, 8.599306941032409668e-01, 2.773829996585845947e-01, -6.256753206253051758e-02, 3.853414580225944519e-02, 9.485155344009399414e-02, -8.846868574619293213e-02},
{4.634267985820770264e-01, -2.033676505088806152e-01, 6.454213857650756836e-01, -1.083057522773742676e-01, -1.324563622474670410e-01, -6.773222982883453369e-02, -6.016160175204277039e-02, 2.788608968257904053e-01},
{6.055696010589599609e-01, -5.076563954353332520e-01, 3.052072525024414062e-01, -1.188478991389274597e-01, -7.755189388990402222e-02, 2.028838992118835449e-01, 1.161821037530899048e-01, 5.760575830936431885e-02},
{6.645206362009048462e-02, -1.338496059179306030e-01, 4.979993104934692383e-01, -5.058478116989135742e-01, -2.994558215141296387e-01, 4.808259196579456329e-03, 1.158850565552711487e-01, 1.058297753334045410e-01},
{-1.491386592388153076e-01, 2.870964705944061279e-01, -2.038357108831405640e-01, 1.168627440929412842e-01, 6.416406631469726562e-01, 7.501253485679626465e-02, 1.226521059870719910e-01, 2.498296648263931274e-01},
{3.925733268260955811e-01, -5.421091318130493164e-01, 2.379095554351806641e-01, 4.763422310352325439e-01, 4.117817282676696777e-01, 4.373404383659362793e-02, 1.706319600343704224e-01, -4.457449167966842651e-02},
{-2.975708246231079102e-01, 5.143357440829277039e-02, 8.762746304273605347e-02, -7.369643449783325195e-01, -5.075629353523254395e-01, 1.461589336395263672e-01, 1.778934895992279053e-01, 1.448063552379608154e-01},
{-3.339762091636657715e-01, 1.466677635908126831e-01, -8.390740156173706055e-01, 2.912434935569763184e-02, 5.577969830483198166e-03, 1.915015466511249542e-02, 1.863656491041183472e-01, 1.144825592637062073e-01},
{-7.309421151876449585e-02, -1.287452280521392822e-01, -5.330823063850402832e-01, 1.952831596136093140e-01, 3.812802731990814209e-01, -3.679183498024940491e-02, -7.082030177116394043e-02, 3.479297161102294922e-01},
{-6.998222321271896362e-02, -4.212213456630706787e-01, 3.419604003429412842e-01, -3.333731293678283691e-01, -2.561662197113037109e-01, -4.273334983736276627e-03, -2.886662483215332031e-01, 2.242459207773208618e-01},
{-6.424161195755004883e-01, 1.043098866939544678e-01, -5.243276357650756836e-01, 1.109313070774078369e-01, 1.800802648067474365e-01, 3.555134683847427368e-02, -8.578647859394550323e-03, 1.836583465337753296e-01},
{-3.781883120536804199e-01, -2.653005421161651611e-01, -4.215928614139556885e-01, -2.611684501171112061e-01, -2.110762596130371094e-01, -1.101339310407638550e-01, 2.435850538313388824e-02, 6.092866510152816772e-02},
{-2.323714792728424072e-01, 1.191288791596889496e-02, 1.734740287065505981e-01, 7.138979434967041016e-02, -2.562086470425128937e-02, -1.000129356980323792e-01, -5.222965404391288757e-02, -7.911828160285949707e-02},
{-3.149647116661071777e-01, -5.215387046337127686e-02, -1.438372433185577393e-01, -2.811031043529510498e-01, -3.162271082401275635e-01, 4.701079428195953369e-02, 8.244983106851577759e-02, -2.503071129322052002e-01},
{4.530231654644012451e-02, -1.239082962274551392e-01, 7.069112062454223633e-01, 9.199272841215133667e-02, -3.591896593570709229e-01, 1.952509880065917969e-01, 6.172114610671997070e-02, 1.162007376551628113e-01},
{-1.100085899233818054e-01, 2.222401499748229980e-01, 4.093964695930480957e-01, 2.402745634317398071e-01, 2.668639421463012695e-01, 2.819081246852874756e-01, -2.394159734249114990e-01, -1.400719732046127319e-01},
{-1.417234987020492554e-01, -2.099991589784622192e-01, -3.713333010673522949e-01, 3.084512650966644287e-01, 8.797001093626022339e-02, -4.084696620702743530e-02, 5.470123514533042908e-02, 3.377787768840789795e-01},
{7.327397912740707397e-02, -1.076156198978424072e-01, 7.927458286285400391e-01, -2.485717087984085083e-01, 4.225518181920051575e-02, 2.100369781255722046e-01, 6.195310503244400024e-02, 6.740707904100418091e-02},
{3.752377033233642578e-01, -9.427922219038009644e-02, 9.444099664688110352e-01, -2.945286631584167480e-01, 7.862423360347747803e-02, -1.999882906675338745e-01, -1.804002523422241211e-01, -1.498114317655563354e-02},
{-7.692434359341859818e-03, 1.826078593730926514e-01, 1.149516180157661438e-01, -6.744104623794555664e-01, -2.097699642181396484e-01, 1.044603437185287476e-01, -9.999277442693710327e-02, 1.442797575145959854e-02},
{-2.359166145324707031e-01, -3.501174747943878174e-01, 5.066678524017333984e-01, 2.190166562795639038e-01, -3.785454900935292244e-03, 1.470092535018920898e-01, -3.714460134506225586e-01, 1.539551913738250732e-01},
{5.639992952346801758e-01, 9.852904081344604492e-02, 2.537318468093872070e-01, 3.135616183280944824e-01, 3.017878234386444092e-01, -1.305798906832933426e-02, -4.072880372405052185e-03, -1.926043778657913208e-01},
{-1.048142015933990479e-01, 1.666256040334701538e-01, 3.451578319072723389e-01, 2.005827277898788452e-01, -6.243748217821121216e-02, 8.044532686471939087e-02, 1.451622992753982544e-01, 1.990623325109481812e-01},
{-2.987520992755889893e-01, 1.142252162098884583e-01, -5.264387130737304688e-01, 1.122303456068038940e-01, 6.124575436115264893e-02, -2.646659016609191895e-01, 1.400160938501358032e-01, 1.460311412811279297e-01},
{-4.216098785400390625e-02, -3.423115611076354980e-01, 8.277615904808044434e-01, -8.214525133371353149e-02, -5.687258392572402954e-02, 1.871852278709411621e-01, -2.857859730720520020e-01, -6.083100661635398865e-02},
{3.021776378154754639e-01, -4.180169999599456787e-01, 5.139167308807373047e-01, 2.508183717727661133e-01, -1.031330525875091553e-01, 2.396307140588760376e-01, 3.108842074871063232e-01, -5.947287008166313171e-02},
{-4.071528613567352295e-01, 2.353721112012863159e-01, -2.772803902626037598e-01, -1.146953031420707703e-01, 1.955383867025375366e-01, 1.242998912930488586e-01, 3.298810496926307678e-02, 2.436162531375885010e-01},
{5.966124683618545532e-02, 4.270459711551666260e-02, 4.443856477737426758e-01, 2.567056715488433838e-01, 3.620667755603790283e-01, 7.629056274890899658e-02, -3.772779703140258789e-01, -9.680610150098800659e-02},
{-3.712768256664276123e-01, 2.150621116161346436e-01, 2.054246664047241211e-01, -3.963802754878997803e-01, -9.961766004562377930e-02, 5.023790895938873291e-02, 2.350085787475109100e-02, 1.070732399821281433e-01},
{5.224550887942314148e-02, -2.385495007038116455e-01, 1.425734609365463257e-01, -1.293770223855972290e-01, -3.693605065345764160e-01, 1.960740536451339722e-01, -8.789705485105514526e-02, -5.647306889295578003e-02},
{6.703785061836242676e-02, -1.928182840347290039e-01, -8.487446233630180359e-03, -5.568334460258483887e-01, -2.499105036258697510e-02, 3.392883390188217163e-02, 2.238136678934097290e-01, 1.658405661582946777e-01},
{-1.091660559177398682e-01, 2.489164322614669800e-01, -1.133899211883544922e+00, -1.304806470870971680e-01, -1.299248635768890381e-02, -9.042964130640029907e-02, 1.016759872436523438e-01, -3.949084505438804626e-02},
{2.349566519260406494e-01, 6.328106671571731567e-02, 1.717745363712310791e-01, 1.749784797430038452e-01, 3.770641386508941650e-01, 8.441194891929626465e-02, 4.678593948483467102e-02, 3.946568667888641357e-01},
{-5.495278835296630859e-01, 3.559554740786552429e-02, 1.022948473691940308e-01, -6.800698041915893555e-01, -4.186585843563079834e-01, -1.562382280826568604e-01, -3.407141268253326416e-01, -1.392961945384740829e-02},
{1.326447725296020508e-01, -9.584181755781173706e-02, 2.461184263229370117e-01, -5.369223952293395996e-01, -3.419052064418792725e-02, 2.869160175323486328e-01, 8.464577049016952515e-02, 9.176926314830780029e-02},
{2.432149052619934082e-01, -2.259304672479629517e-01, 2.876640260219573975e-01, 1.018223389983177185e-01, -1.286889612674713135e-01, -6.678681075572967529e-02, 5.621324293315410614e-03, 1.554148048162460327e-01},
{-1.565486788749694824e-01, -1.644530147314071655e-01, 6.693606972694396973e-01, -3.164901137351989746e-01, -1.382334530353546143e-01, 3.615540862083435059e-01, -2.723264098167419434e-01, -8.313541859388351440e-02},
{8.084668219089508057e-02, -6.171576380729675293e-01, 6.609851121902465820e-01, -7.340814173221588135e-02, 1.555650234222412109e-01, 5.804412811994552612e-02, 1.666986383497714996e-02, -1.996797025203704834e-01},
{-4.676435291767120361e-01, 1.866163313388824463e-01, -3.454106450080871582e-01, 2.507677376270294189e-01, 1.475346088409423828e-01, 3.338618874549865723e-01, -7.215002924203872681e-02, 2.359291352331638336e-02},
{1.680220216512680054e-01, -2.718922197818756104e-01, 6.886764764785766602e-01, 3.984499871730804443e-01, -9.049695730209350586e-02, 1.538694649934768677e-01, 2.008575052022933960e-01, 3.175023198127746582e-01},
{-1.300952136516571045e-01, -5.749779753386974335e-03, 1.413563787937164307e-01, -3.330366015434265137e-01, -4.064077436923980713e-01, -2.304561249911785126e-02, 1.482264399528503418e-01, 2.901324629783630371e-01},
{3.190617561340332031e-01, -8.203601464629173279e-03, -5.927649885416030884e-02, 3.411422371864318848e-01, -4.729428794234991074e-03, -2.313259094953536987e-01, -6.587497144937515259e-02, 1.064007729291915894e-02},
{2.832744419574737549e-01, 2.430637180805206299e-02, -3.968875408172607422e-01, 1.252050399780273438e-01, 1.497251391410827637e-01, -7.205338776111602783e-02, 1.014902442693710327e-01, -1.969963610172271729e-01},
{1.765256971120834351e-01, -6.501813232898712158e-02, 2.592245936393737793e-01, 1.970204710960388184e-01, 4.693755507469177246e-01, 1.017539799213409424e-01, 1.027124971151351929e-01, 1.186423003673553467e-02},
{1.827720105648040771e-01, -1.726088821887969971e-01, 4.641253352165222168e-01, 4.214380867779254913e-03, -1.366339325904846191e-01, 2.085210569202899933e-02, -1.365163922309875488e-01, -6.909093260765075684e-02},
{4.317171573638916016e-01, 1.350765489041805267e-02, 1.578087210655212402e-01, 9.037744253873825073e-02, -2.310418635606765747e-01, 2.223384827375411987e-01, 3.183608055114746094e-01, -5.278288945555686951e-02},
{-2.440538555383682251e-01, 1.177827566862106323e-01, -3.320262134075164795e-01, 8.573082089424133301e-02, 1.817570328712463379e-01, 2.777364850044250488e-01, -2.142630666494369507e-01, -1.905994862318038940e-01},
{1.291506439447402954e-01, 1.839236766099929810e-01, -2.427489310503005981e-01, -2.302028238773345947e-01, -2.767646014690399170e-01, 4.654161036014556885e-01, 9.853009134531021118e-02, 3.567983806133270264e-01},
{7.907055616378784180e-01, -1.124378666281700134e-01, 2.359425574541091919e-01, 7.066643983125686646e-02, -8.845454454421997070e-02, -1.207729205489158630e-01, -5.263826623558998108e-02, -2.882781028747558594e-01},
{-2.502965033054351807e-01, -1.781804412603378296e-01, -4.051394462585449219e-01, -1.788987964391708374e-01, -1.624431088566780090e-02, -1.447391211986541748e-01, 1.224003210663795471e-01, 2.874877750873565674e-01},
{2.281473726034164429e-01, -6.710930913686752319e-02, 4.482311904430389404e-01, -5.401220917701721191e-01, -1.843968480825424194e-01, 2.377763092517852783e-01, -1.576156467199325562e-01, -7.820422761142253876e-03},
{-5.205729231238365173e-02, 7.133301496505737305e-01, -2.275069504976272583e-01, 6.520481705665588379e-01, -4.612998291850090027e-02, 3.172478079795837402e-01, -1.460152119398117065e-01, -1.420595943927764893e-01},
{3.604727238416671753e-02, -1.714324951171875000e-01, -2.046234309673309326e-01, 3.016812503337860107e-01, 2.566198110580444336e-01, 2.821085155010223389e-01, -6.412602663040161133e-01, 3.021399080753326416e-01},
{5.186298117041587830e-02, 6.194758042693138123e-02, -2.715605497360229492e-01, 3.709437549114227295e-01, -1.082151830196380615e-01, 3.728394210338592529e-02, 8.371038734912872314e-02, -2.255339324474334717e-01},
};

float b0[64] = {
8.435520529747009277e-02,
-4.271206632256507874e-02,
-9.508676826953887939e-02,
6.189465522766113281e-02,
2.202664464712142944e-01,
-7.505936175584793091e-02,
-1.857259124517440796e-01,
1.038278341293334961e-01,
2.480972111225128174e-01,
1.422374844551086426e-01,
-1.240115263499319553e-03,
-7.430841028690338135e-02,
1.629863828420639038e-01,
1.922699436545372009e-02,
1.510064154863357544e-01,
2.199898958206176758e-01,
9.720520116388797760e-03,
1.065015196800231934e-01,
1.141976565122604370e-01,
7.339920848608016968e-02,
3.397698700428009033e-02,
-4.539506509900093079e-02,
-1.743194460868835449e-01,
4.349237307906150818e-02,
-8.759564161300659180e-02,
1.431408673524856567e-01,
9.697076678276062012e-02,
-2.891273982822895050e-02,
-5.963928997516632080e-02,
6.939579546451568604e-02,
2.258091419935226440e-01,
6.922765821218490601e-02,
-9.640944749116897583e-02,
1.960159279406070709e-02,
-6.528069078922271729e-02,
1.649134010076522827e-01,
-9.267398715019226074e-02,
3.137335926294326782e-02,
-1.582949310541152954e-01,
1.452041715383529663e-01,
-2.434217631816864014e-01,
-1.616134196519851685e-01,
1.773064434528350830e-01,
-8.594782650470733643e-02,
-1.264086514711380005e-01,
-1.429979801177978516e-01,
-5.678833276033401489e-02,
7.278675679117441177e-03,
1.510801166296005249e-01,
-7.321866601705551147e-02,
1.105902995914220810e-02,
-1.469484567642211914e-01,
-1.369805186986923218e-01,
2.350325435400009155e-01,
1.870203465223312378e-01,
1.183097735047340393e-01,
2.479465454816818237e-01,
7.745109498500823975e-02,
4.213934391736984253e-02,
2.870037592947483063e-02,
9.613242745399475098e-02,
-1.151744201779365540e-01,
1.931746304035186768e-01,
9.636714309453964233e-02,
};

float w1[64][64] = {
{-1.979426592588424683e-01, -2.346436306834220886e-02, 3.038520216941833496e-01, 6.876505613327026367e-01, -2.700463235378265381e-01, 1.097682788968086243e-01, -1.140104755759239197e-01, -2.185833603143692017e-01, -4.964822530746459961e-01, -9.677213430404663086e-02, -2.272215783596038818e-01, 8.429127186536788940e-02, -5.074914693832397461e-01, 8.915995806455612183e-02, -3.322280049324035645e-01, -4.379330873489379883e-01, 7.039930671453475952e-02, 1.703424565494060516e-02, -1.773600131273269653e-01, 4.478600621223449707e-02, 1.142775490880012512e-01, -2.049712687730789185e-01, 2.247516363859176636e-01, -3.084366619586944580e-01, -2.903114445507526398e-02, 2.115646898746490479e-01, -2.024657577276229858e-01, 1.042190492153167725e-01, -3.713424876332283020e-02, 1.060271561145782471e-01, 2.404684871435165405e-01, 8.420296758413314819e-02, -3.037482686340808868e-02, -5.628592520952224731e-02, 5.904236435890197754e-02, -3.319987952709197998e-01, 1.208520457148551941e-01, 3.182986378669738770e-02, 1.936719268560409546e-01, 9.408731013536453247e-03, -1.561087220907211304e-01, 2.372568994760513306e-01, 4.858860000967979431e-02, 4.416408538818359375e-01, 8.762964606285095215e-02, -3.351821005344390869e-02, -1.020486429333686829e-01, -1.313244849443435669e-01, 2.962542474269866943e-01, -1.540484875440597534e-01, 1.192320659756660461e-01, 7.882593572139739990e-02, 2.065217196941375732e-01, -6.832820177078247070e-01, -7.925459742546081543e-02, -2.747072875499725342e-01, 3.595836460590362549e-01, -6.751663982868194580e-02, -2.780172824859619141e-01, -6.146077811717987061e-02, 5.001664906740188599e-02, 1.332967728376388550e-01, -8.060636371374130249e-02, -2.057499587535858154e-01},
{-5.328933894634246826e-02, -2.812112569808959961e-01, -7.427155226469039917e-02, 4.202821850776672363e-01, 9.395175613462924957e-03, -2.165735661983489990e-01, -7.051319628953933716e-02, 4.329682290554046631e-01, 3.871827572584152222e-02, -1.342888623476028442e-01, -1.669110655784606934e-01, 1.048307344317436218e-01, -2.852785885334014893e-01, -2.198592126369476318e-01, 1.582876443862915039e-01, 2.784436643123626709e-01, -1.569117754697799683e-01, -2.060191705822944641e-02, 2.689075767993927002e-01, 2.992831468582153320e-01, 2.080126553773880005e-01, 1.058178767561912537e-01, 2.720700390636920929e-02, -2.541927397251129150e-01, -1.329758763313293457e-01, -2.555316984653472900e-01, 2.341587096452713013e-01, -2.077094167470932007e-01, -1.845254153013229370e-01, 3.306312020868062973e-03, -1.350798755884170532e-01, 1.066236346960067749e-01, 1.267550587654113770e-01, 3.907332420349121094e-01, -2.001470029354095459e-01, -2.223631143569946289e-01, -1.233018282800912857e-02, -2.627017498016357422e-01, -2.095222920179367065e-01, -5.079728364944458008e-01, 3.821872472763061523e-01, 1.841203309595584869e-02, -6.562450528144836426e-02, -2.430657893419265747e-01, -5.495932102203369141e-01, -8.433559536933898926e-02, -1.261776238679885864e-01, -2.855491042137145996e-01, -5.362508818507194519e-04, -8.281379193067550659e-02, -3.285330161452293396e-02, -2.010452151298522949e-01, 1.535614728927612305e-01, -9.125179052352905273e-02, -1.945540457963943481e-01, -2.912606894969940186e-01, -2.134722620248794556e-01, 4.936929326504468918e-03, -1.467326581478118896e-01, 1.521830409765243530e-01, -3.066792190074920654e-01, 1.565717607736587524e-01, 1.624245792627334595e-01, 8.557604253292083740e-02},
{3.209799155592918396e-02, 1.253813505172729492e-02, 3.133926987648010254e-01, -1.024659052491188049e-01, -1.602052003145217896e-01, 3.727126494050025940e-02, 1.100683584809303284e-01, 5.552711337804794312e-02, -1.297433674335479736e-01, 4.195896908640861511e-03, -4.693235158920288086e-01, -6.240879744291305542e-02, -1.946757882833480835e-01, -1.926024556159973145e-01, 4.904554039239883423e-02, -3.534367978572845459e-01, -8.739889413118362427e-02, 2.187607288360595703e-01, 1.477890163660049438e-01, -2.834399938583374023e-01, -1.129576191306114197e-01, -2.167812734842300415e-01, 2.778553068637847900e-01, 8.457153290510177612e-02, -2.503751218318939209e-01, -9.360214322805404663e-02, -1.582035124301910400e-01, -5.141603946685791016e-01, -1.117434278130531311e-01, 4.636926576495170593e-02, -2.541539072990417480e-01, 2.189264148473739624e-01, -1.788446754217147827e-01, 2.323747426271438599e-01, 1.219351738691329956e-01, -2.508867084980010986e-01, -1.549167782068252563e-01, 1.449772268533706665e-01, -2.366600185632705688e-01, -2.703039050102233887e-01, 1.358817815780639648e-01, 2.955324649810791016e-01, 1.496240049600601196e-01, 8.531410992145538330e-02, -8.584765344858169556e-02, -4.782968759536743164e-02, -5.083360075950622559e-01, -3.422446250915527344e-01, -2.697795629501342773e-02, -5.707417801022529602e-02, 1.115499436855316162e-01, -2.023495286703109741e-01, 2.308094352483749390e-01, 2.138950824737548828e-01, -3.532874882221221924e-01, -1.133083552122116089e-01, -2.222996056079864502e-01, 1.056373640894889832e-01, 1.093608066439628601e-01, -2.517180442810058594e-01, 3.441993892192840576e-02, 2.763775587081909180e-01, -3.182034939527511597e-02, -2.051938474178314209e-01},
{-3.755677342414855957e-01, -3.063791692256927490e-01, 2.273079305887222290e-01, 1.553787291049957275e-01, 1.322233825922012329e-01, -3.162401914596557617e-01, 1.186678931117057800e-02, 5.524060726165771484e-01, -5.008242651820182800e-02, 1.911002770066261292e-02, -2.313109934329986572e-01, -4.392518997192382812e-01, -2.469390034675598145e-01, -1.105865761637687683e-01, 1.718395501375198364e-01, 7.177522033452987671e-02, -1.293128430843353271e-01, 2.602300643920898438e-01, 1.961006224155426025e-01, -4.182816147804260254e-01, 1.528623849153518677e-01, -1.652407646179199219e-01, -1.359541714191436768e-01, -1.609987914562225342e-01, -1.626168489456176758e-01, -1.711796522140502930e-01, 1.035645678639411926e-01, -2.963511943817138672e-01, 1.466661840677261353e-01, -3.860640227794647217e-01, 2.332041738554835320e-03, 3.504300713539123535e-01, 3.814883530139923096e-01, -1.237258315086364746e-01, 8.956698328256607056e-02, -4.032420739531517029e-02, -4.030171036720275879e-02, -1.809148639440536499e-01, -3.784457221627235413e-02, -2.000057846307754517e-01, -2.388835847377777100e-01, 2.192775011062622070e-01, 1.971285976469516754e-02, -3.125460147857666016e-01, 1.535848677158355713e-01, 6.675175577402114868e-02, -2.273292690515518188e-01, -1.193713173270225525e-01, 5.254735797643661499e-02, -1.455646157264709473e-01, -5.962685942649841309e-01, 6.173544377088546753e-02, 1.499556750059127808e-01, 2.257046848535537720e-01, 3.237100318074226379e-02, 1.272664517164230347e-01, -8.404435962438583374e-02, -1.592240482568740845e-01, 2.176641672849655151e-02, -1.271483208984136581e-02, -1.468939147889614105e-02, 5.355929583311080933e-02, -2.216925621032714844e-01, 3.515190780162811279e-01},
{2.856369018554687500e-01, 8.942044526338577271e-02, -1.872306019067764282e-01, -1.081439256668090820e-01, -1.793496906757354736e-01, 3.772704601287841797e-01, 4.076349548995494843e-03, -4.020285606384277344e-01, 1.846980601549148560e-01, 9.594628214836120605e-02, 8.278320729732513428e-02, 1.147707477211952209e-01, -1.468206290155649185e-02, 2.134573161602020264e-01, -4.412083029747009277e-01, -1.216492429375648499e-01, 3.410810828208923340e-01, -2.450684309005737305e-01, -2.518287003040313721e-01, 1.296087950468063354e-01, -4.696458876132965088e-01, 4.315090775489807129e-01, -8.838027715682983398e-02, 2.810240983963012695e-01, 5.300943180918693542e-02, -2.055923491716384888e-01, -1.083715185523033142e-01, 1.612577438354492188e-01, 1.188765168190002441e-01, 2.115977182984352112e-02, 1.679671555757522583e-01, 1.448608338832855225e-01, 1.894207894802093506e-01, -5.743215084075927734e-01, 3.003085255622863770e-01, -5.811603367328643799e-02, 6.001814827322959900e-02, 2.881051972508430481e-02, 2.913028001785278320e-01, 5.646763369441032410e-03, 3.834293186664581299e-01, 7.639212161302566528e-02, -2.286066412925720215e-01, 1.856008172035217285e-01, 2.531345486640930176e-01, 4.670480638742446899e-02, -8.780657500028610229e-02, 8.720645564608275890e-04, 1.488986909389495850e-01, -5.122386664152145386e-02, 2.742719054222106934e-01, -5.617706105113029480e-02, 1.795985251665115356e-01, -1.486689969897270203e-02, 1.236972361803054810e-01, -2.717516720294952393e-01, 1.493893265724182129e-01, 3.035760298371315002e-02, 1.109147891402244568e-01, -5.751169472932815552e-02, 3.919260799884796143e-01, 1.915013194084167480e-01, -1.013259664177894592e-01, 3.921009004116058350e-01},
{1.165184099227190018e-02, -2.135019302368164062e-01, -3.093431890010833740e-01, -3.488245606422424316e-02, 4.584229364991188049e-02, -2.919782400131225586e-01, -2.436289638280868530e-01, -3.676743805408477783e-02, 1.477793902158737183e-01, -1.315971314907073975e-01, 2.257522195577621460e-01, 1.454979330301284790e-01, 5.200519412755966187e-02, -2.006383985280990601e-01, -2.640505731105804443e-01, 1.610927730798721313e-01, 2.264488935470581055e-01, -6.307123228907585144e-03, -1.079146936535835266e-02, -2.892698049545288086e-01, -1.466421037912368774e-01, -6.355925649404525757e-02, 1.734577566385269165e-01, 5.218861997127532959e-02, -6.186982244253158569e-02, 1.293930858373641968e-01, 5.938594043254852295e-02, 3.010242879390716553e-01, 7.402267456054687500e-01, -6.335930526256561279e-02, 9.434773772954940796e-02, -1.299497671425342560e-02, -7.718262821435928345e-02, 2.033954560756683350e-01, 1.971205472946166992e-01, 1.663159132003784180e-01, 1.576532423496246338e-01, -1.350139230489730835e-01, -1.610714346170425415e-01, 1.474782675504684448e-01, 1.356927677989006042e-02, -2.371759265661239624e-01, 2.724845409393310547e-01, -1.053314879536628723e-01, -1.811476796865463257e-01, 2.726680934429168701e-01, 7.413582503795623779e-02, 2.085187472403049469e-03, 1.145730316638946533e-01, 6.605734676122665405e-02, -9.672898054122924805e-02, -3.563936054706573486e-02, 3.389441072940826416e-01, 8.936481922864913940e-02, -4.738395288586616516e-02, 1.560491025447845459e-01, 8.758007548749446869e-03, 1.364737153053283691e-01, 2.566868662834167480e-01, 1.678817570209503174e-01, 6.478084623813629150e-02, 2.417377233505249023e-01, 2.751072347164154053e-01, -3.187451511621475220e-02},
{1.794605106115341187e-01, 4.762635231018066406e-01, 1.485878974199295044e-01, -3.822458386421203613e-01, -5.870308354496955872e-02, 1.243797838687896729e-01, -8.564339578151702881e-02, -7.571143656969070435e-02, -1.194858402013778687e-01, 6.269133090972900391e-02, 2.420541942119598389e-01, 2.328827381134033203e-01, -1.909171342849731445e-01, 1.950599700212478638e-01, -5.441061258316040039e-01, -3.128520548343658447e-01, -5.537375807762145996e-02, 5.971652641892433167e-02, -2.369651496410369873e-01, 2.795804142951965332e-01, 7.374598085880279541e-02, -8.298566937446594238e-02, -1.743886470794677734e-01, 1.233129873871803284e-01, 4.537161290645599365e-01, 9.243822097778320312e-02, 1.851645410060882568e-01, 2.157816737890243530e-01, 1.156174838542938232e-01, 2.026787251234054565e-01, 2.519735693931579590e-02, -1.267491579055786133e-01, -2.816765606403350830e-01, -1.903488188982009888e-01, 2.990420162677764893e-02, -2.654218971729278564e-01, 1.647059023380279541e-01, -1.429355144500732422e-01, 4.904738068580627441e-01, 1.046084463596343994e-01, 2.205386161804199219e-01, -4.101453125476837158e-01, 1.100393459200859070e-01, 4.993535578250885010e-01, -3.456051647663116455e-02, 1.634226888418197632e-01, 4.462264776229858398e-01, -2.004528604447841644e-02, -5.172087624669075012e-02, -1.684316992759704590e-01, 8.653704077005386353e-02, -2.688398063182830811e-01, -1.431496590375900269e-01, 8.180723339319229126e-02, 1.874220520257949829e-01, -3.031184151768684387e-02, -1.252515166997909546e-01, 4.301549792289733887e-01, -3.731874749064445496e-02, 1.584380269050598145e-01, 5.721953511238098145e-01, 3.450018167495727539e-02, -5.565886199474334717e-02, -2.076734974980354309e-02},
{2.055941969156265259e-01, -3.663150668144226074e-01, 4.435157775878906250e-02, 2.313689738512039185e-01, 4.802069813013076782e-02, 3.306312114000320435e-02, 8.790230751037597656e-02, 2.886967360973358154e-01, -9.436500072479248047e-02, 1.106825172901153564e-01, -2.820758819580078125e-01, -2.888960838317871094e-01, 7.358543574810028076e-02, 7.872728258371353149e-02, -5.129951611161231995e-02, 1.216269806027412415e-01, 2.532802224159240723e-01, 2.511494159698486328e-01, -1.350986808538436890e-01, -5.424215644598007202e-02, -2.897890470921993256e-02, 9.756586700677871704e-02, -1.349230557680130005e-01, 2.528751790523529053e-01, -4.328726828098297119e-01, -3.682124912738800049e-01, 1.145413145422935486e-01, 1.814980208873748779e-01, -1.266781687736511230e-01, 9.468669444322586060e-02, -2.197116166353225708e-01, -4.308071434497833252e-01, -1.316049881279468536e-02, 3.848573192954063416e-02, -1.439489126205444336e-01, -1.681110411882400513e-01, -1.353491693735122681e-01, 9.977965801954269409e-02, -7.474848628044128418e-02, 2.334029078483581543e-01, 8.484697341918945312e-02, 7.376450300216674805e-02, -6.926734000444412231e-03, 3.292948305606842041e-01, -1.513465028256177902e-02, -4.655591249465942383e-01, 9.071560204029083252e-02, 5.171936005353927612e-02, 1.322426199913024902e-01, 1.714102178812026978e-01, 1.051389425992965698e-02, -3.210949003696441650e-01, 1.155087202787399292e-01, 6.859151273965835571e-02, 3.555571436882019043e-01, 7.067447900772094727e-02, 1.055326610803604126e-01, 7.757824659347534180e-02, -2.653277814388275146e-01, 4.097258672118186951e-02, 7.316894829273223877e-02, -1.148507893085479736e-01, -9.977477788925170898e-02, 3.287952393293380737e-03},
{1.431540995836257935e-01, 1.436271667480468750e-01, -3.829399943351745605e-01, -1.707814931869506836e-01, 2.021629214286804199e-01, -2.914720214903354645e-02, 1.386018693447113037e-01, -4.599520564079284668e-01, -3.375055501237511635e-03, -3.767390176653862000e-02, -2.202227711677551270e-01, 1.616356521844863892e-01, 1.637272983789443970e-01, 2.081953138113021851e-01, -6.154769062995910645e-01, -4.448986053466796875e-01, 4.190366864204406738e-01, -3.726922273635864258e-01, -3.123895227909088135e-01, 1.618904918432235718e-01, -2.250806540250778198e-01, -9.292433410882949829e-02, -4.303834214806556702e-02, -1.192148253321647644e-01, 3.844782710075378418e-01, -1.993688195943832397e-01, 5.656462162733078003e-02, -3.487755954265594482e-01, 3.108257353305816650e-01, -7.775621861219406128e-02, 8.656632900238037109e-02, -1.945057511329650879e-01, -1.844092458486557007e-01, -3.060837388038635254e-01, 5.823390558362007141e-02, 7.676998525857925415e-02, 3.826790302991867065e-02, -3.394022956490516663e-02, 1.970009505748748779e-01, 3.035033680498600006e-02, -1.412860453128814697e-01, -2.165917605161666870e-01, -4.731857776641845703e-01, 1.039161682128906250e-01, 8.064478635787963867e-02, -1.687976866960525513e-01, 2.550041973590850830e-01, 2.498120665550231934e-01, -1.986563578248023987e-02, 9.362860023975372314e-02, 1.854557394981384277e-01, 2.182047255337238312e-02, -9.530452638864517212e-02, -1.242218539118766785e-01, -4.592284187674522400e-02, -1.037216857075691223e-01, -2.294171601533889771e-01, 3.261037170886993408e-02, -3.064698278903961182e-01, -2.460395842790603638e-01, 1.801829785108566284e-01, 3.676750883460044861e-02, 2.065454423427581787e-02, -4.928201064467430115e-02},
{-1.080458387732505798e-01, -9.611611068248748779e-02, 9.927037358283996582e-02, -7.344077527523040771e-02, 2.628743648529052734e-01, -2.327580600976943970e-01, -2.942546904087066650e-01, 2.236119955778121948e-01, 3.148334324359893799e-01, 5.709617733955383301e-01, 1.256579905748367310e-01, -1.132828518748283386e-01, -2.479029744863510132e-01, -2.184115648269653320e-01, 1.708844453096389771e-01, -2.541327662765979767e-02, -2.338486611843109131e-01, -2.319958806037902832e-01, -5.183186382055282593e-02, 2.242985516786575317e-01, 3.288519680500030518e-01, -2.872147262096405029e-01, -9.205530583858489990e-02, -6.351220607757568359e-02, -6.717991083860397339e-02, 1.374966055154800415e-01, 1.422950718551874161e-02, 1.917790472507476807e-01, 5.003153681755065918e-01, -2.924331724643707275e-01, 1.702223718166351318e-01, 1.798412799835205078e-01, -8.595027774572372437e-02, 3.463685214519500732e-01, 2.810738086700439453e-01, 1.272732764482498169e-01, 2.124454230070114136e-01, 5.547145009040832520e-01, -1.024816185235977173e-01, -2.231278866529464722e-01, -1.777805685997009277e-01, -4.264529049396514893e-01, 2.146438956260681152e-01, -5.103809386491775513e-02, -4.406068101525306702e-02, -5.539607405662536621e-01, -2.946693003177642822e-01, 2.183724194765090942e-01, -1.947024911642074585e-01, -1.311771869659423828e-01, -1.509258598089218140e-01, 6.675671041011810303e-02, -1.288419961929321289e-01, 1.241624727845191956e-01, 1.185842975974082947e-02, -1.171124726533889771e-01, 2.206757962703704834e-01, 1.424951255321502686e-01, 2.130634188652038574e-01, -2.757109701633453369e-01, -3.457169234752655029e-01, -7.073746621608734131e-02, 2.462567239999771118e-01, 2.185594439506530762e-01},
{-1.804755479097366333e-01, 2.724106311798095703e-01, -1.259827315807342529e-01, -9.308160096406936646e-02, -4.367378726601600647e-02, -2.062087655067443848e-01, -2.674943208694458008e-01, 1.848997920751571655e-01, -3.561639785766601562e-02, -8.439767360687255859e-02, 1.572063714265823364e-01, 1.604088954627513885e-02, 7.052532583475112915e-02, 2.130558490753173828e-01, 9.794649481773376465e-02, -3.709647059440612793e-01, 6.201596464961767197e-03, -1.408614814281463623e-01, 2.352009341120719910e-02, 3.485761284828186035e-01, -3.470604717731475830e-01, -3.268039226531982422e-02, -1.251814067363739014e-01, -7.284245640039443970e-02, -3.004368543624877930e-01, -4.472232982516288757e-02, -1.398203969001770020e-01, 1.360583007335662842e-01, -3.259243816137313843e-02, -1.802009642124176025e-01, 3.649922907352447510e-01, -3.728101551532745361e-01, 2.310891076922416687e-02, -9.429147839546203613e-02, 2.665948867797851562e-01, 1.404188126325607300e-01, 1.659408658742904663e-01, -1.175457090139389038e-01, -2.356921285390853882e-01, 1.526591777801513672e-01, 2.812372148036956787e-02, -3.135867714881896973e-01, 1.832984089851379395e-01, -1.896950304508209229e-01, -1.496244668960571289e-01, -1.061096973717212677e-02, 1.722335070371627808e-01, 5.645854026079177856e-02, 1.050491631031036377e-01, -1.839172244071960449e-01, 2.070083916187286377e-01, -7.885164022445678711e-02, -5.007055401802062988e-01, 5.884157121181488037e-02, 3.277086913585662842e-01, -1.620336771011352539e-01, -1.760896146297454834e-01, -2.418686449527740479e-02, 2.626096606254577637e-01, -5.170709267258644104e-02, 2.508105039596557617e-01, 5.427685007452964783e-02, -7.070954889059066772e-02, 1.348458528518676758e-01},
{-4.391509667038917542e-02, 5.761681199073791504e-01, 1.345409732311964035e-02, 4.264894127845764160e-02, 1.121658459305763245e-02, -4.127423837780952454e-02, -5.283534526824951172e-02, 1.113018840551376343e-01, 2.472086846828460693e-01, 2.291105240583419800e-01, -7.380352821201086044e-03, -1.530287712812423706e-01, 2.827372252941131592e-01, 2.994374334812164307e-01, -1.038430854678153992e-01, -2.287292480468750000e-02, 3.749515116214752197e-01, 3.788171708583831787e-02, -1.764131151139736176e-02, 3.135205432772636414e-02, -1.206131502985954285e-01, 1.395633071660995483e-01, -3.934176638722419739e-02, -2.167849838733673096e-01, 2.506163418292999268e-01, 2.891997098922729492e-01, 5.705675482749938965e-02, 2.362772375345230103e-01, 4.763121902942657471e-02, 6.278825998306274414e-01, 1.392260491847991943e-01, 1.116661801934242249e-01, -4.757156595587730408e-02, -2.149858325719833374e-01, 1.654352992773056030e-01, 1.708699166774749756e-01, -4.400319978594779968e-02, -1.505437195301055908e-01, -1.770815700292587280e-01, 5.420123785734176636e-02, 8.792750304564833641e-04, -5.098404288291931152e-01, -6.902471184730529785e-02, -1.426557004451751709e-01, 1.000621542334556580e-01, -1.767628639936447144e-01, 1.276379525661468506e-01, 9.908009320497512817e-02, -1.149606853723526001e-01, -8.142293989658355713e-02, 4.187228679656982422e-01, -1.823911517858505249e-01, 8.544941246509552002e-02, 2.709633409976959229e-01, 2.495499253273010254e-01, 1.368048936128616333e-01, 2.259915024042129517e-01, 2.150513529777526855e-01, -1.438392251729965210e-01, 1.505051851272583008e-01, -1.703806966543197632e-01, 7.779140770435333252e-02, -1.414457559585571289e-01, 1.328287869691848755e-01},
{-9.068514406681060791e-02, 1.918479055166244507e-01, -8.089341223239898682e-02, -2.078469842672348022e-02, -1.189276054501533508e-01, -2.440644428133964539e-02, -4.824254661798477173e-02, -1.476671248674392700e-01, -2.626122236251831055e-01, -1.784039586782455444e-01, -1.353224962949752808e-01, -3.368604481220245361e-01, -1.595988422632217407e-01, 4.397871717810630798e-02, 3.832332789897918701e-01, -2.722849845886230469e-01, -2.968016080558300018e-02, -2.994326502084732056e-02, 2.707003057003021240e-01, -6.467030197381973267e-02, -3.002619445323944092e-01, 5.263114813715219498e-03, -1.383647471666336060e-01, 1.057256385684013367e-01, 2.114014625549316406e-01, -3.511852025985717773e-02, 1.751360446214675903e-01, 1.355940103530883789e-01, 1.094822064042091370e-01, 1.195685341954231262e-01, 2.997973263263702393e-01, -1.672180928289890289e-02, -2.569089233875274658e-01, 1.330344229936599731e-01, -5.196159705519676208e-02, 2.081542909145355225e-01, -1.712172031402587891e-01, 2.805322110652923584e-01, -8.043722808361053467e-02, -1.174000874161720276e-01, 3.795395195484161377e-01, 1.927955895662307739e-01, -1.241002827882766724e-01, 1.265944540500640869e-01, -2.194322347640991211e-01, -4.021168500185012817e-02, 2.274521254003047943e-02, -8.735406398773193359e-02, 1.497772186994552612e-01, 8.240498602390289307e-02, -2.320794761180877686e-01, 3.313089907169342041e-01, 3.772088289260864258e-01, -4.388369619846343994e-02, 1.862975805997848511e-01, 9.000983834266662598e-02, -1.596564613282680511e-02, 1.454183459281921387e-01, -7.943591475486755371e-02, -1.176245883107185364e-01, 1.928261667490005493e-02, -3.904922902584075928e-01, 2.249607592821121216e-01, 8.157031983137130737e-02},
{2.389314621686935425e-01, -1.807973682880401611e-01, 9.033477306365966797e-02, 2.662142366170883179e-02, -4.598516523838043213e-01, -1.239405050873756409e-01, 9.185177832841873169e-02, -2.585192322731018066e-01, 1.954195350408554077e-01, 1.302679628133773804e-01, -1.349836885929107666e-01, 7.914038747549057007e-02, 9.899533540010452271e-02, -5.166899412870407104e-02, -1.213471442461013794e-01, -7.800463587045669556e-02, 5.468673631548881531e-02, 5.512092113494873047e-01, 3.347266018390655518e-01, 1.937180608510971069e-01, 2.184589058160781860e-01, 7.267986238002777100e-02, -3.156653940677642822e-01, -1.757399439811706543e-01, -6.064528971910476685e-02, -1.882269084453582764e-01, 5.932332277297973633e-01, -9.189351648092269897e-02, -2.998691797256469727e-01, 1.513693630695343018e-01, 1.161086484789848328e-01, 5.937462300062179565e-02, 3.488484621047973633e-01, 3.207483887672424316e-01, 4.414078965783119202e-02, -3.120524585247039795e-01, 3.438576757907867432e-01, -2.419276684522628784e-01, -1.358992308378219604e-01, 2.870291769504547119e-01, 2.227576971054077148e-01, -2.063032984733581543e-01, 2.877871692180633545e-01, -1.983578801155090332e-01, -3.355541452765464783e-02, 1.594584137201309204e-01, -3.073317110538482666e-01, -8.319503068923950195e-02, 2.435832172632217407e-01, 3.928430974483489990e-01, 1.125371176749467850e-02, 3.045635521411895752e-01, -4.233630895614624023e-01, 1.390762329101562500e-01, -2.509438619017601013e-02, -1.200729981064796448e-01, 1.414085477590560913e-01, 4.682236611843109131e-01, -1.401432454586029053e-01, 2.577015161514282227e-01, -8.639448881149291992e-02, -1.527006179094314575e-01, 6.471752375364303589e-02, -3.448848128318786621e-01},
{1.538497954607009888e-02, -1.982100680470466614e-02, -1.874643727205693722e-03, -1.178967505693435669e-01, -2.315345555543899536e-01, -3.652793765068054199e-01, 1.840154975652694702e-01, 2.682162225246429443e-01, -1.359601970762014389e-02, 2.528557777404785156e-01, 9.949793666601181030e-02, 3.872886300086975098e-01, 8.919584751129150391e-02, -1.644148975610733032e-01, -1.970098167657852173e-01, -1.134742349386215210e-01, -3.530350625514984131e-01, -5.065537691116333008e-01, 2.799843549728393555e-01, -2.059506028890609741e-01, 1.877223998308181763e-01, 6.619981676340103149e-02, -1.979047618806362152e-02, 3.385607898235321045e-02, -9.630505740642547607e-02, -1.265453696250915527e-01, 1.922524571418762207e-01, 3.249987959861755371e-01, 1.433541923761367798e-01, 1.755303293466567993e-01, 2.143549025058746338e-01, -5.448387190699577332e-02, -5.404490977525711060e-02, -1.468453854322433472e-01, -1.775885187089443207e-02, 2.064888179302215576e-02, -2.898884005844593048e-02, 4.691950231790542603e-02, 4.613402485847473145e-02, -1.198037862777709961e-01, -8.952198177576065063e-02, -1.756012588739395142e-01, -1.100450567901134491e-02, -2.122254222631454468e-01, 1.813658475875854492e-01, -1.394991576671600342e-01, -5.216354876756668091e-02, -9.776324778795242310e-02, 1.919679343700408936e-01, -1.324356049299240112e-01, 1.787429898977279663e-01, 2.180168032646179199e-01, -9.687160700559616089e-02, 4.073334932327270508e-01, 2.974741347134113312e-02, 1.743573844432830811e-01, 2.094468325376510620e-01, -3.268922865390777588e-01, 1.578568816184997559e-01, -8.662319183349609375e-02, 1.685959845781326294e-01, 6.864332407712936401e-02, 3.363366127014160156e-01, -3.780643045902252197e-01},
{-1.683555394411087036e-01, -1.211390048265457153e-01, -4.267831444740295410e-01, 9.277324378490447998e-02, 9.742543101310729980e-02, -3.274128139019012451e-01, -2.307189404964447021e-01, 1.116719245910644531e-01, 5.179650150239467621e-03, 4.440008103847503662e-01, 3.621672093868255615e-01, -9.515668451786041260e-02, 1.080079823732376099e-01, -1.141699180006980896e-01, 1.713866591453552246e-01, 4.938272535800933838e-01, -2.459382116794586182e-01, 1.180718615651130676e-01, 4.158160686492919922e-01, -3.942074254155158997e-02, -1.167144328355789185e-01, -4.989844858646392822e-01, -2.532002627849578857e-01, 5.889534205198287964e-02, -6.926108151674270630e-02, 3.227303922176361084e-01, 2.227130681276321411e-01, -2.427188456058502197e-01, -9.924617409706115723e-02, -7.670762389898300171e-02, 2.338507622480392456e-01, 2.297767102718353271e-01, -1.350234746932983398e-01, 1.798484623432159424e-01, 2.525452077388763428e-01, 3.299562260508537292e-02, -2.085158526897430420e-01, 4.316827356815338135e-01, -1.610449701547622681e-01, -4.170484542846679688e-01, -3.619723618030548096e-01, -2.040680050849914551e-01, 1.970345973968505859e-01, -2.070968598127365112e-01, 1.465413346886634827e-02, -2.203482203185558319e-02, 2.316603809595108032e-01, 4.478555321693420410e-01, 1.470556855201721191e-01, 3.989719599485397339e-02, -2.506613731384277344e-02, -1.440563499927520752e-01, 5.675656720995903015e-02, 3.735393285751342773e-01, 2.240039557218551636e-01, -2.946698069572448730e-01, 3.957511782646179199e-01, -1.762978881597518921e-01, 1.814921349287033081e-01, 7.115454971790313721e-02, 9.833192080259323120e-02, 1.001267433166503906e-01, 2.475239634513854980e-01, -6.923861801624298096e-02},
{-3.213399052619934082e-01, -5.938932895660400391e-01, 2.307784259319305420e-01, 8.669463545083999634e-02, 4.896051436662673950e-02, -4.688201248645782471e-01, -1.154160872101783752e-02, 1.675152778625488281e-01, 6.354685127735137939e-02, 3.572209775447845459e-01, 1.156238764524459839e-01, -2.366056852042675018e-02, 4.469207674264907837e-02, -3.149830698966979980e-01, 2.088608443737030029e-01, 1.129944343119859695e-02, -3.508274555206298828e-01, -1.884644664824008942e-02, -1.211933940649032593e-01, -3.405323252081871033e-02, -2.247023135423660278e-01, -1.667270064353942871e-01, 3.580123484134674072e-01, -1.888087540864944458e-01, 1.317113339900970459e-01, 1.492490321397781372e-01, 1.488664895296096802e-01, -2.699767947196960449e-01, -2.260963916778564453e-01, -3.114949166774749756e-01, 1.785905212163925171e-01, -5.453326925635337830e-02, 3.090418875217437744e-01, 8.508014678955078125e-02, -3.925769031047821045e-01, -2.163304835557937622e-01, -1.784137040376663208e-01, 1.650952035561203957e-03, -2.884779572486877441e-01, -2.055100500583648682e-01, 6.365410238504409790e-02, 2.356689423322677612e-01, 4.594420194625854492e-01, -8.223444223403930664e-02, 1.773416996002197266e-01, -1.265226900577545166e-01, -1.010446920990943909e-01, -1.091873571276664734e-01, -4.069548100233078003e-02, -7.242598384618759155e-02, -1.523843258619308472e-01, 2.014831602573394775e-01, 2.571631669998168945e-01, 3.656949102878570557e-01, -4.034141078591346741e-02, -2.918125689029693604e-02, -2.604216337203979492e-01, 1.212454214692115784e-01, 9.139651060104370117e-02, 2.639458775520324707e-01, -5.014426708221435547e-01, -1.137518063187599182e-01, 3.965079784393310547e-01, 9.477718919515609741e-02},
{3.880868852138519287e-02, -4.618242383003234863e-01, 2.005046010017395020e-01, 1.541306227445602417e-01, 2.587034404277801514e-01, 1.695179194211959839e-01, -8.828665316104888916e-02, -6.950012594461441040e-02, 4.045305848121643066e-01, -1.843667477369308472e-01, -1.137714907526969910e-01, -8.383576571941375732e-02, -3.963062465190887451e-01, 4.848948121070861816e-02, 4.346165060997009277e-02, -2.455220222473144531e-01, -1.248822454363107681e-02, 4.390051364898681641e-01, 3.302029967308044434e-01, -6.663451343774795532e-02, 2.636961638927459717e-01, -5.135847255587577820e-02, 7.808431982994079590e-03, 5.791307240724563599e-02, -1.035631075501441956e-01, 4.257880151271820068e-02, -1.711609810590744019e-01, -2.681227028369903564e-01, -4.361710548400878906e-01, 7.049583643674850464e-02, -9.802647680044174194e-02, -2.035152018070220947e-01, -8.720885217189788818e-02, -4.733093827962875366e-02, -2.277638465166091919e-01, 3.159120976924896240e-01, -8.681002259254455566e-02, -4.794501364231109619e-01, 2.718805521726608276e-02, 8.808640763163566589e-03, -5.877154320478439331e-02, 1.289255917072296143e-01, -2.680232375860214233e-02, -1.233036518096923828e-01, -2.105675190687179565e-01, -1.584946960210800171e-01, -2.878783047199249268e-01, 3.010785952210426331e-02, 3.784787654876708984e-01, 1.606124639511108398e-01, 2.051305621862411499e-01, -3.661530315876007080e-01, -1.120168492197990417e-01, 2.245833277702331543e-01, 8.237852156162261963e-02, 1.094498261809349060e-01, 4.959244132041931152e-01, 7.324737310409545898e-02, -3.432041034102439880e-02, 2.164808064699172974e-01, -5.779426917433738708e-02, -3.863865733146667480e-01, 1.842997223138809204e-01, 2.611048221588134766e-01},
{1.594779491424560547e-01, 9.498913586139678955e-02, 5.651123523712158203e-01, 2.001937478780746460e-01, 3.253610804677009583e-02, -1.244502961635589600e-01, 8.265309035778045654e-02, -4.407130926847457886e-02, 1.121131852269172668e-01, 4.785584285855293274e-02, -2.481989115476608276e-01, -1.451072096824645996e-01, -1.516606193035840988e-02, -1.540496386587619781e-02, 3.368392586708068848e-02, 9.901855885982513428e-02, 2.952585816383361816e-01, -1.614539511501789093e-02, 2.265605926513671875e-01, 2.664823830127716064e-01, 4.974607750773429871e-02, -1.546471714973449707e-01, -1.357941329479217529e-01, 2.484912425279617310e-01, -2.844404987990856171e-02, 1.032583713531494141e-01, 4.222933948040008545e-02, -2.235145419836044312e-01, -1.006307154893875122e-01, -4.218339622020721436e-01, 9.952140599489212036e-02, 1.879035532474517822e-01, -7.019004225730895996e-02, 2.599126696586608887e-01, -4.286442399024963379e-01, -9.699715301394462585e-03, -3.114224225282669067e-02, 6.837464123964309692e-02, -1.435145884752273560e-01, 1.988514065742492676e-01, 2.389886677265167236e-01, 2.373078167438507080e-01, -1.073373109102249146e-01, -2.999176271259784698e-02, -1.806353777647018433e-01, 5.793192237615585327e-02, -5.055546015501022339e-02, -3.863753080368041992e-01, 2.816839218139648438e-01, -3.059282600879669189e-01, -1.493501514196395874e-01, -8.374844491481781006e-02, -2.366593927145004272e-01, 6.639494746923446655e-02, -1.029175519943237305e-01, 5.479951947927474976e-02, 5.489420294761657715e-01, -1.550207734107971191e-01, -1.229921877384185791e-01, 2.631720602512359619e-01, -1.763074249029159546e-01, 2.104977220296859741e-01, -4.540363326668739319e-02, 1.815118640661239624e-02},
{-1.101413220167160034e-01, -1.099577322602272034e-01, 1.952962279319763184e-01, 3.576215803623199463e-01, 1.413328051567077637e-01, 3.425582945346832275e-01, 3.050777688622474670e-02, 2.443074062466621399e-02, -1.356394141912460327e-01, -1.436981000006198883e-02, -1.454858183860778809e-01, 2.722465619444847107e-02, 1.276545524597167969e-01, -1.537051051855087280e-01, -8.179070800542831421e-02, -2.735611498355865479e-01, 2.214306443929672241e-01, 3.190015554428100586e-01, -2.122742533683776855e-01, -8.791845291852951050e-02, 2.992178797721862793e-01, 1.766794770956039429e-01, -9.624212980270385742e-02, -9.730867296457290649e-02, -1.416942477226257324e-01, -4.793004095554351807e-01, 1.549059990793466568e-02, 2.038338221609592438e-02, -1.864814907312393188e-01, -2.908506691455841064e-01, 9.889319539070129395e-02, 8.825830370187759399e-02, 3.214547410607337952e-02, 9.999464452266693115e-02, -1.454698443412780762e-01, -6.418903172016143799e-02, 7.566383481025695801e-02, -7.099452614784240723e-02, 1.505568716675043106e-02, -3.855197727680206299e-01, 3.672510087490081787e-01, 1.965434849262237549e-01, -8.964628726243972778e-02, -3.866412043571472168e-01, 2.102447487413883209e-02, 2.053366005420684814e-01, -8.701096288859844208e-03, -1.499526053667068481e-01, -4.168484210968017578e-01, 3.228589892387390137e-01, -1.595874316990375519e-02, 1.867426373064517975e-02, 3.040226399898529053e-01, 1.565017253160476685e-01, -1.125978678464889526e-01, 1.763635426759719849e-01, -1.996509432792663574e-01, -1.084334701299667358e-01, 1.413986086845397949e-01, 4.351712465286254883e-01, 3.721910063177347183e-03, -4.044659435749053955e-01, -2.184234857559204102e-01, -4.488066434860229492e-01},
{-3.619487285614013672e-01, 2.293520867824554443e-01, 2.586989402770996094e-01, 1.533657312393188477e-01, 2.206947356462478638e-01, -3.146882355213165283e-02, -1.550196260213851929e-01, -4.167208671569824219e-01, -3.531615063548088074e-02, -3.940740227699279785e-02, -1.007792502641677856e-01, -1.401205360889434814e-01, 5.535317119210958481e-03, -1.951335221529006958e-01, 6.278408318758010864e-02, -3.346890211105346680e-02, -2.613590955734252930e-01, -7.692679017782211304e-02, 1.024405285716056824e-01, -3.637575209140777588e-01, 1.632596850395202637e-01, -5.456301197409629822e-02, 1.036046296358108521e-01, 2.718215249478816986e-02, -2.189059257507324219e-01, -3.909417390823364258e-01, 7.185707241296768188e-02, -3.892208635807037354e-02, -1.285349577665328979e-01, -4.068658873438835144e-02, 2.329313457012176514e-01, -1.205673590302467346e-01, -7.613519579172134399e-02, -1.740864515304565430e-01, 1.858761161565780640e-01, -1.981238871812820435e-01, 5.418612062931060791e-02, -3.788296133279800415e-02, 4.051912948489189148e-02, 8.134051412343978882e-02, 1.507598161697387695e-01, 2.127460241317749023e-01, -1.396470665931701660e-01, 5.021567940711975098e-01, -3.564668819308280945e-02, 2.091061770915985107e-01, -6.596411764621734619e-02, -3.939380869269371033e-02, -3.706260621547698975e-01, 9.643312543630599976e-02, 1.612752489745616913e-02, -1.648025810718536377e-01, -7.211991399526596069e-02, -2.078492492437362671e-01, -1.533891856670379639e-01, -2.295866757631301880e-01, 1.998689323663711548e-01, 5.396898090839385986e-02, -1.346085965633392334e-01, 1.493749150540679693e-04, -3.722398281097412109e-01, 4.547190964221954346e-01, 1.978688985109329224e-01, -5.939091555774211884e-03},
{-1.924563646316528320e-01, -1.333214491605758667e-01, 2.615881562232971191e-01, -1.779384538531303406e-02, 1.271442603319883347e-02, 3.891805931925773621e-02, 6.225876137614250183e-02, -5.713094398379325867e-02, 1.456091403961181641e-01, 2.211228311061859131e-01, -1.867604404687881470e-01, -5.183202773332595825e-02, 7.528061419725418091e-02, 2.573007643222808838e-01, 2.077006846666336060e-01, -8.069992065429687500e-02, 2.409994304180145264e-01, 4.046604335308074951e-01, 4.157630503177642822e-01, 3.397935032844543457e-01, 2.093809545040130615e-01, -1.133705005049705505e-01, 1.555180400609970093e-01, -2.774651348590850830e-01, -9.160947054624557495e-02, -4.578106105327606201e-02, 4.383631516247987747e-03, -2.424212545156478882e-02, 3.138930797576904297e-01, 2.029080539941787720e-01, 1.276118867099285126e-02, -4.231358468532562256e-01, 9.296595305204391479e-02, 1.788720861077308655e-02, 5.500485375523567200e-02, -3.482570946216583252e-01, 8.271928131580352783e-02, 2.286053821444511414e-02, 2.690382301807403564e-01, 1.951417326927185059e-02, -8.004138618707656860e-02, 1.859789192676544189e-01, 3.423355519771575928e-02, 7.876334339380264282e-02, -3.497637212276458740e-01, 1.016794294118881226e-01, -3.624139130115509033e-01, -1.402434259653091431e-01, -5.445527285337448120e-02, -2.888540625572204590e-01, -1.275448054075241089e-01, 1.647739261388778687e-01, 8.927568793296813965e-02, 2.059421241283416748e-01, -1.625753492116928101e-01, -3.755705058574676514e-01, 9.251901064999401569e-04, -2.973440885543823242e-01, -1.789774000644683838e-01, 1.690553873777389526e-01, 1.282611116766929626e-02, -2.936728531494736671e-03, 3.235862553119659424e-01, -3.671371042728424072e-01},
{5.893302559852600098e-01, -8.893840759992599487e-02, -3.102041222155094147e-02, 2.199313417077064514e-02, 6.344676017761230469e-02, 3.435951843857765198e-02, 2.918857932090759277e-01, 2.636722475290298462e-02, -1.942771673202514648e-01, -3.253262639045715332e-01, 1.583599299192428589e-02, 2.532879635691642761e-02, 3.966892063617706299e-01, 1.419592797756195068e-01, 2.966154515743255615e-01, -2.248864918947219849e-01, -1.024939939379692078e-01, 2.128135114908218384e-01, 7.512978464365005493e-02, 2.863373979926109314e-02, 9.461014717817306519e-02, -1.150902286171913147e-01, -3.287673592567443848e-01, -2.952128648757934570e-01, -2.900626957416534424e-01, 2.276221662759780884e-01, 3.178358078002929688e-01, 2.700805664062500000e-02, -1.861585080623626709e-01, -3.681495487689971924e-01, -6.765193492174148560e-02, -4.984185472130775452e-02, 1.388106495141983032e-01, 1.957736462354660034e-01, 1.233259961009025574e-02, -1.829058676958084106e-01, -7.796143740415573120e-02, -3.463507592678070068e-01, 2.029756158590316772e-01, 9.255348145961761475e-02, 4.625305533409118652e-02, 1.562433093786239624e-01, 1.889171153306961060e-01, -1.404865235090255737e-01, -6.039248779416084290e-03, -1.671853959560394287e-01, -2.016776949167251587e-01, -9.668915718793869019e-02, -1.465862989425659180e-01, 9.071421623229980469e-02, 2.738122045993804932e-01, -3.665364906191825867e-02, 3.948718905448913574e-01, -3.019689815118908882e-03, -1.494535617530345917e-02, 2.716903984546661377e-01, 8.302750438451766968e-02, -4.008805379271507263e-02, 4.458863660693168640e-02, 2.775191664695739746e-01, -1.710448861122131348e-01, 5.634197592735290527e-02, 3.602351620793342590e-02, 1.987673491239547729e-01},
{1.103957146406173706e-01, 1.781580299139022827e-01, -2.372166216373443604e-01, -1.973433494567871094e-01, -4.527460336685180664e-01, 3.392906486988067627e-01, -5.996332038193941116e-03, -3.077338039875030518e-01, -1.081911101937294006e-01, -1.519837379455566406e-01, -8.435925096273422241e-02, 2.874861061573028564e-01, 9.569856524467468262e-02, 6.107918173074722290e-02, -1.747614294290542603e-01, -3.886568248271942139e-01, 4.394660294055938721e-01, -4.670791625976562500e-01, -5.133013725280761719e-01, 9.300429373979568481e-02, 7.611101865768432617e-02, -3.782776892185211182e-01, -3.125986084342002869e-02, 2.217953354120254517e-01, 2.432567924261093140e-01, 1.349861770868301392e-01, -1.903807222843170166e-01, 2.871062159538269043e-01, 1.775472760200500488e-01, 4.330971837043762207e-01, -1.661405265331268311e-01, -7.077810168266296387e-02, 5.221121013164520264e-02, -4.470951855182647705e-01, 2.595227062702178955e-01, -1.791044473648071289e-01, -1.748224645853042603e-01, -2.293463349342346191e-01, -2.172274291515350342e-01, -4.431896656751632690e-02, 1.381431519985198975e-01, 2.492617666721343994e-01, -2.919672131538391113e-01, 1.929431259632110596e-01, 1.133108064532279968e-01, 1.556886881589889526e-01, 3.747562468051910400e-01, 2.853054106235504150e-01, -4.060389101505279541e-01, 1.320137381553649902e-01, -2.231114059686660767e-01, 2.541317138820886612e-03, -2.731417715549468994e-01, -1.556036770343780518e-01, 1.858336180448532104e-01, 9.296753257513046265e-02, 2.101900875568389893e-01, -1.610385440289974213e-02, 1.657530292868614197e-02, -8.040156215429306030e-02, 3.407098650932312012e-01, 1.937945932149887085e-01, 6.734015792608261108e-02, 2.713736891746520996e-01},
{-1.089150011539459229e-01, 1.258419011719524860e-03, 1.976127922534942627e-01, 6.832085549831390381e-02, 2.229910492897033691e-01, -2.783729694783687592e-03, -2.550890743732452393e-01, -1.213722452521324158e-01, -3.854357600212097168e-01, -7.333844900131225586e-02, -1.225620210170745850e-01, 1.678898632526397705e-01, 5.221727490425109863e-02, -3.628154397010803223e-01, -9.919504821300506592e-02, -1.994835734367370605e-01, 1.562260985374450684e-01, 4.430559650063514709e-02, 6.147269904613494873e-02, -2.595005370676517487e-02, -1.445563137531280518e-01, 1.004308834671974182e-01, -5.018283724784851074e-01, 1.641509979963302612e-01, 5.753518268465995789e-02, 2.235524803400039673e-01, -2.301386557519435883e-02, 2.150927670300006866e-02, 7.635833323001861572e-02, 8.189155161380767822e-02, -2.576482594013214111e-01, -1.623155176639556885e-01, 1.826305538415908813e-01, 1.345225702971220016e-02, -2.430630177259445190e-01, 3.790739178657531738e-01, -1.790839284658432007e-01, -4.387284442782402039e-02, -1.689616963267326355e-02, 9.762340784072875977e-02, -2.082781121134757996e-02, 3.013988025486469269e-02, 2.373546510934829712e-01, -9.979667514562606812e-02, 1.112246066331863403e-01, 4.770455136895179749e-02, -9.820354729890823364e-02, -1.453725099563598633e-01, -2.091927379369735718e-01, 1.029633507132530212e-01, 3.334345668554306030e-02, -1.237599328160285950e-01, 3.337177261710166931e-02, 5.731291323900222778e-02, 2.626623809337615967e-01, -4.539415240287780762e-01, 1.592620611190795898e-01, -1.171329468488693237e-01, -1.993781328201293945e-01, -2.526689767837524414e-01, 1.382579677738249302e-03, 1.166392192244529724e-01, -1.367444992065429688e-01, -7.572418451309204102e-02},
{1.420712023973464966e-01, -3.513915240764617920e-01, 6.196405366063117981e-02, 1.159881427884101868e-01, 4.000460505485534668e-01, -1.772228926420211792e-01, -2.722887098789215088e-01, 2.745728753507137299e-02, -2.198648154735565186e-01, 4.180492460727691650e-01, 5.277875810861587524e-02, -1.408360153436660767e-01, -1.646771095693111420e-02, -1.412539184093475342e-01, 2.483402788639068604e-01, 2.956525385379791260e-01, -2.284362018108367920e-01, -4.985968023538589478e-02, 1.374879330396652222e-01, 2.545947209000587463e-02, -1.259549800306558609e-02, 2.706975117325782776e-02, 2.104505747556686401e-01, -1.721929907798767090e-01, -6.813494861125946045e-02, 3.425786495208740234e-01, 1.456611603498458862e-01, 3.329396545886993408e-01, 7.219884544610977173e-02, -2.227443009614944458e-01, 1.355274766683578491e-01, 1.072158515453338623e-01, -6.730961203575134277e-01, -2.743598520755767822e-01, 1.015789210796356201e-01, -2.545458674430847168e-01, -2.439040541648864746e-01, 1.783917546272277832e-01, -4.065936505794525146e-01, -5.512386187911033630e-02, -2.335884124040603638e-01, -2.197475284337997437e-01, -7.570234686136245728e-02, -4.058634042739868164e-01, -4.733100533485412598e-02, 3.622884303331375122e-02, -2.452547252178192139e-01, 3.071991167962551117e-02, -2.566021308302879333e-02, -1.524276137351989746e-01, -3.314494490623474121e-01, -7.071814965456724167e-03, -1.280846595764160156e-01, 2.329776287078857422e-01, -1.489115655422210693e-01, -4.322644174098968506e-01, 2.075535207986831665e-01, 2.031411081552505493e-01, 2.219914272427558899e-02, -3.336990177631378174e-01, 2.541316449642181396e-01, -1.270654052495956421e-01, 3.750224411487579346e-02, 7.033131271600723267e-02},
{3.120410740375518799e-01, 2.201950699090957642e-01, 7.755424082279205322e-02, 1.063311696052551270e-01, -5.766736343502998352e-02, -1.680938899517059326e-02, 1.093450188636779785e-01, -1.104429438710212708e-01, 1.914574652910232544e-01, 2.741832844913005829e-02, 2.076680958271026611e-01, 3.346867263317108154e-01, -2.312116622924804688e-01, -5.927168577909469604e-02, 3.509211242198944092e-01, 5.646159499883651733e-02, -5.931702256202697754e-02, -2.137825936079025269e-01, 5.081254243850708008e-02, 2.909288555383682251e-02, 2.405020445585250854e-01, -2.656830251216888428e-01, 1.177779212594032288e-01, -3.595464676618576050e-02, -1.509845256805419922e-01, -2.361900359392166138e-01, 2.530255019664764404e-01, -5.863267555832862854e-02, 1.582185626029968262e-01, -6.998344790190458298e-03, -7.795922923833131790e-03, -9.647624939680099487e-02, 3.571121394634246826e-02, -2.950777411460876465e-01, 8.175684139132499695e-03, 2.133394032716751099e-01, -2.103905230760574341e-01, -5.997543339617550373e-04, -1.483062207698822021e-01, 1.430237889289855957e-01, -7.648734748363494873e-02, -7.410451769828796387e-01, 1.248426735401153564e-01, 8.420613408088684082e-02, 1.423728615045547485e-01, 1.303994059562683105e-01, 9.316772967576980591e-02, 5.318743363022804260e-02, 1.194197162985801697e-01, -8.409337699413299561e-02, -1.290143579244613647e-01, 3.308490514755249023e-01, 2.443494647741317749e-01, 2.593429684638977051e-01, 4.323473572731018066e-02, -3.218210041522979736e-01, -1.629300415515899658e-01, -6.863887421786785126e-03, 3.193351998925209045e-02, 2.002422064542770386e-01, -4.172065481543540955e-02, -4.747829958796501160e-02, -1.125036701560020447e-01, 6.514471769332885742e-02},
{1.490585356950759888e-01, 4.070079326629638672e-01, -1.397315710783004761e-01, -8.396639674901962280e-02, 6.076560541987419128e-02, 6.593614816665649414e-02, 1.167733445763587952e-01, -3.140180706977844238e-01, -3.491507843136787415e-02, -3.241864144802093506e-01, 1.893255263566970825e-01, 5.930189490318298340e-01, 2.058310508728027344e-01, 2.542551755905151367e-01, -4.273498356342315674e-01, -5.938399955630302429e-02, 5.503267645835876465e-01, -2.699203789234161377e-01, 3.932996392250061035e-01, 3.150049448013305664e-01, 1.267483383417129517e-01, 1.602992564439773560e-01, 1.955291777849197388e-01, 2.669085003435611725e-02, 2.371622920036315918e-01, 1.014202833175659180e-01, 6.049736589193344116e-02, 8.885953575372695923e-02, 2.549756169319152832e-01, 2.539758980274200439e-01, 1.075220108032226562e-01, 1.577536612749099731e-01, 4.847485199570655823e-02, -3.012323975563049316e-01, 4.624962508678436279e-01, -9.545797854661941528e-02, -2.538208067417144775e-01, 2.149360030889511108e-01, 1.209621354937553406e-01, 2.562916874885559082e-01, 2.072368413209915161e-01, -1.386193782091140747e-01, 1.442247927188873291e-01, 4.053391516208648682e-01, 3.744298815727233887e-01, -2.037835121154785156e-01, 1.136240363121032715e-01, 1.325024068355560303e-01, -1.012975573539733887e-01, 3.624205663800239563e-02, -3.580469929147511721e-04, -3.744905889034271240e-01, -3.675071597099304199e-01, -2.385392487049102783e-01, 4.345281422138214111e-01, -3.678381815552711487e-02, -1.547620743513107300e-01, 2.064938098192214966e-01, 1.478576660156250000e-01, -3.313134424388408661e-03, 3.705613017082214355e-01, -3.490905761718750000e-01, 1.481744367629289627e-02, -9.192301332950592041e-02},
{-9.815590828657150269e-02, 1.981620676815509796e-02, 1.083619594573974609e-01, 7.829087227582931519e-02, -1.873745024204254150e-01, 1.911679208278656006e-01, 1.122638359665870667e-01, -4.536678269505500793e-02, -2.475000619888305664e-01, 9.652924537658691406e-02, 1.566939949989318848e-01, -8.577764779329299927e-02, -7.778870314359664917e-02, -4.559844136238098145e-01, -1.407497823238372803e-01, 3.774488866329193115e-01, -5.048350691795349121e-01, 4.464741051197052002e-01, 2.940501868724822998e-01, -2.847294807434082031e-01, -2.312363684177398682e-01, -1.676733642816543579e-01, 4.030491709709167480e-01, 7.123117148876190186e-02, -1.436752676963806152e-01, -8.619089424610137939e-02, -4.467598721385002136e-02, -1.627083271741867065e-01, 2.429390326142311096e-02, -3.658459782600402832e-01, -1.229685768485069275e-01, -1.509062945842742920e-01, 9.147324413061141968e-02, 3.031519949436187744e-01, -3.160861730575561523e-01, 2.710493467748165131e-02, 1.672670543193817139e-01, -1.835429966449737549e-01, -3.143485784530639648e-01, -2.621517479419708252e-01, -3.198009356856346130e-02, 9.099934995174407959e-02, -3.225232362747192383e-01, -3.977342247962951660e-01, -1.715289503335952759e-01, -2.725392580032348633e-01, -5.369802713394165039e-01, -1.498003024607896805e-02, -3.043121993541717529e-01, -1.485065370798110962e-01, -2.158893048763275146e-01, 1.004631668329238892e-01, 2.722982466220855713e-01, 9.462309628725051880e-02, 1.515511125326156616e-01, 1.091586723923683167e-01, -2.961747944355010986e-01, -4.535924792289733887e-01, -4.722363501787185669e-02, -8.434900082647800446e-03, -2.966639101505279541e-01, -1.546924859285354614e-01, -2.311753481626510620e-01, 3.774307072162628174e-01},
{1.601892858743667603e-01, 2.535540238022804260e-02, 4.345578849315643311e-01, 3.849395811557769775e-01, 1.479817181825637817e-01, 4.054134190082550049e-01, 1.514297574758529663e-01, 2.703666687011718750e-01, 3.715408965945243835e-02, -1.635368764400482178e-01, 1.463276240974664688e-02, -5.294893682003021240e-02, -1.349588632583618164e-01, -4.978241920471191406e-01, 4.828117042779922485e-02, -1.895154118537902832e-01, 1.919376403093338013e-01, 2.368624806404113770e-01, 4.857778549194335938e-02, -1.054341197013854980e-01, 2.880388312041759491e-02, 2.434043586254119873e-01, -1.008417904376983643e-01, -4.097706675529479980e-01, -3.679732382297515869e-01, 1.953229010105133057e-01, 2.948212325572967529e-01, -2.105911821126937866e-01, -4.196292459964752197e-01, 2.087743431329727173e-01, 1.525550782680511475e-01, -1.545819491147994995e-01, -7.350785285234451294e-02, 2.542754709720611572e-01, -5.909374356269836426e-02, 6.716145575046539307e-02, 3.218882083892822266e-01, 4.627412185072898865e-02, 1.030100956559181213e-01, -2.373535186052322388e-01, -1.350426673889160156e-02, 4.862505197525024414e-01, 2.915213443338871002e-02, 1.651842743158340454e-01, -1.542026177048683167e-02, -1.535593718290328979e-02, -2.498896270990371704e-01, 3.469850867986679077e-02, 4.385652244091033936e-01, -1.739853620529174805e-01, -5.136740207672119141e-01, -1.037214547395706177e-01, -1.933952569961547852e-01, 1.021770536899566650e-01, -2.148247361183166504e-01, -5.007725208997726440e-02, 5.630551651120185852e-02, 4.709954559803009033e-02, -3.902963697910308838e-01, 1.167566850781440735e-01, -2.201268225908279419e-01, 2.563086748123168945e-01, 1.607349663972854614e-01, -1.454612612724304199e-02},
{-3.362315595149993896e-01, -5.060905218124389648e-02, 1.898131221532821655e-01, -7.565478235483169556e-02, 6.840003281831741333e-02, -2.329981029033660889e-01, 5.256437063217163086e-01, 4.079786241054534912e-01, -1.013930290937423706e-01, 1.686850190162658691e-01, 7.175750285387039185e-02, 2.479777783155441284e-01, -1.475528627634048462e-01, -6.656626611948013306e-02, 4.103218317031860352e-01, 1.985435932874679565e-01, -2.106338143348693848e-01, 2.092156708240509033e-01, -1.324319839477539062e-01, -3.134389817714691162e-01, 9.139845520257949829e-02, 1.826563775539398193e-01, 1.423863470554351807e-01, -5.946526676416397095e-02, -6.265904754400253296e-02, -1.469844114035367966e-02, 1.138626933097839355e-01, -2.593350708484649658e-01, 2.405161708593368530e-01, -1.822773963212966919e-01, 9.132004342973232269e-03, 2.352592051029205322e-01, -9.480817615985870361e-02, 9.156279265880584717e-02, -3.889088332653045654e-01, -1.144769489765167236e-01, 8.470433950424194336e-02, -1.572224050760269165e-01, -7.583110034465789795e-02, -7.395085692405700684e-02, -1.226825043559074402e-01, 3.300020396709442139e-01, 1.833808608353137970e-02, -2.952628731727600098e-01, -4.646392762660980225e-01, -8.169655501842498779e-02, -1.667653173208236694e-01, 1.245359629392623901e-01, 8.682998269796371460e-02, 3.531814813613891602e-01, -5.673309788107872009e-02, 2.088149785995483398e-01, 2.012146562337875366e-01, 5.835960060358047485e-02, 2.855944633483886719e-01, -3.011659979820251465e-01, 5.038999766111373901e-02, -3.471098095178604126e-02, 3.852140605449676514e-01, -1.819793581962585449e-01, -3.079623281955718994e-01, 1.275685578584671021e-01, -2.960014343261718750e-02, 1.337923109531402588e-01},
{1.247398331761360168e-01, 1.579371839761734009e-01, -2.710472941398620605e-01, -1.301705837249755859e-02, 4.907042533159255981e-02, 2.369345165789127350e-02, -1.832667589187622070e-01, 1.144040450453758240e-01, -2.981472611427307129e-01, -2.372495234012603760e-01, -9.154171496629714966e-02, 2.353459149599075317e-01, 2.362169921398162842e-01, -4.863388836383819580e-02, 1.794812083244323730e-01, -4.415152221918106079e-02, 2.183491587638854980e-01, 5.531834959983825684e-01, -3.216429054737091064e-01, 2.075428366661071777e-01, 3.342432901263237000e-02, 2.139758318662643433e-03, 2.154292911291122437e-01, 2.446784675121307373e-01, 5.615339428186416626e-02, -5.736536979675292969e-01, 1.236371770501136780e-01, -9.840832650661468506e-02, -6.945047527551651001e-02, 2.092683315277099609e-02, -1.305810362100601196e-01, 6.407099962234497070e-02, -9.842621535062789917e-02, 1.730774492025375366e-01, 1.440777909010648727e-02, 3.233119845390319824e-01, 3.126548230648040771e-02, -2.637102901935577393e-01, 2.782352268695831299e-02, 2.488075988367199898e-03, -1.324062347412109375e-01, 5.091767907142639160e-01, -1.902445703744888306e-01, 1.478779762983322144e-01, 2.412746399641036987e-01, 1.829070411622524261e-02, -6.888455152511596680e-02, -2.883072197437286377e-01, 6.530322134494781494e-02, -1.561704874038696289e-01, 3.203918337821960449e-01, 6.511462479829788208e-02, -1.019612178206443787e-01, 7.981348037719726562e-02, -8.580415509641170502e-03, 1.557510346174240112e-01, 1.915803402662277222e-01, 1.905011832714080811e-01, -1.747244745492935181e-01, 1.730726212263107300e-01, -5.187239032238721848e-03, -2.306411862373352051e-01, -8.583925664424896240e-02, 2.197936326265335083e-01},
{8.080876618623733521e-02, 3.339857161045074463e-01, 8.837086148560047150e-03, 1.062494069337844849e-01, 1.670191287994384766e-01, 3.170387744903564453e-01, -8.199092745780944824e-02, 2.676986157894134521e-01, -2.679661214351654053e-01, 2.363094836473464966e-01, -4.667932540178298950e-02, 5.972025170922279358e-02, -1.628889292478561401e-01, -1.779594421386718750e-01, -3.715822705999016762e-03, 1.925284862518310547e-01, 3.751871585845947266e-01, 1.491691172122955322e-01, 1.225171834230422974e-01, -1.142779141664505005e-01, -1.243828795850276947e-02, -1.303311437368392944e-01, -3.284929394721984863e-01, 1.477105915546417236e-02, 1.810366101562976837e-02, -1.316331177949905396e-01, -2.809033691883087158e-01, -2.232634574174880981e-01, -9.732288122177124023e-02, -1.470025777816772461e-01, -2.062847912311553955e-01, -1.714467406272888184e-01, 7.226035743951797485e-02, -2.603423595428466797e-01, -1.043184623122215271e-01, -1.243296116590499878e-01, 1.686060130596160889e-01, -1.547790020704269409e-01, -2.406329512596130371e-01, 1.709995120763778687e-01, 2.281742841005325317e-01, 9.132221341133117676e-02, -3.401487134397029877e-03, -2.586572617292404175e-02, 1.001334637403488159e-01, -3.212660178542137146e-02, -5.400900045060552657e-05, 2.528105974197387695e-01, 1.058164834976196289e-01, -1.289408653974533081e-01, 1.652091145515441895e-01, 9.421254694461822510e-02, 1.961819827556610107e-01, -2.563188672065734863e-01, -2.974071502685546875e-01, 1.982575207948684692e-01, -3.484023362398147583e-02, 1.652089208364486694e-01, 2.185618877410888672e-01, -1.420429646968841553e-01, -7.568413764238357544e-02, -2.083675861358642578e-01, 3.578172028064727783e-01, -5.627283081412315369e-02},
{-1.712832599878311157e-02, 3.518941998481750488e-02, -5.561906471848487854e-02, -8.137442916631698608e-02, -8.621317893266677856e-02, -3.009656630456447601e-02, -2.317372411489486694e-01, -2.544682323932647705e-01, -2.414468675851821899e-02, -5.368613451719284058e-02, -1.238267943263053894e-01, -1.668970137834548950e-01, 1.261172443628311157e-01, 1.188769191503524780e-01, 3.717279061675071716e-02, -9.650731831789016724e-02, 1.710650324821472168e-01, 3.975377082824707031e-01, -2.944276481866836548e-02, -1.782326586544513702e-02, 3.764381110668182373e-01, 1.990564614534378052e-01, -2.647993266582489014e-01, 7.995580881834030151e-02, -2.091418057680130005e-01, -5.247309058904647827e-02, -2.639952898025512695e-01, -8.227860182523727417e-02, -1.471779048442840576e-01, 1.235955506563186646e-01, 2.147079072892665863e-02, -2.456741333007812500e-01, -2.794730365276336670e-01, 1.428056359291076660e-01, -5.265756249427795410e-01, -1.088517084717750549e-01, -1.901877969503402710e-01, -6.687658280134201050e-02, -5.371927842497825623e-02, -3.085414469242095947e-01, -1.062647532671689987e-02, 8.453964442014694214e-02, -1.934948265552520752e-01, -4.380781576037406921e-02, 4.082911014556884766e-01, -2.057272791862487793e-01, -3.236666023731231689e-01, -2.509208917617797852e-01, 3.739462494850158691e-01, -4.826162382960319519e-02, -2.595126926898956299e-01, -6.019362807273864746e-02, 7.132773101329803467e-02, -3.095328211784362793e-01, 8.955800533294677734e-02, -8.958060294389724731e-02, -1.526863127946853638e-01, 7.938174903392791748e-02, 2.677929997444152832e-01, 2.297418415546417236e-01, -1.093837991356849670e-01, 3.164998292922973633e-01, 2.701985277235507965e-02, 1.074373349547386169e-01},
{-1.047717854380607605e-01, -1.180163547396659851e-01, 3.420518040657043457e-01, 2.024573236703872681e-01, -1.341219991445541382e-01, 9.399449825286865234e-02, -3.850158676505088806e-02, 2.884034216403961182e-01, 1.130916625261306763e-01, -3.510180115699768066e-01, -1.430527716875076294e-01, -1.974388509988784790e-01, -1.739229410886764526e-01, -1.428343355655670166e-01, 6.123523414134979248e-02, 5.186339095234870911e-02, -3.659138083457946777e-01, -1.160007528960704803e-02, 1.581107974052429199e-01, -2.517932653427124023e-01, -3.054155707359313965e-01, -1.710429042577743530e-01, 1.138917282223701477e-01, -2.345542162656784058e-01, -1.876903027296066284e-01, -1.033687144517898560e-01, -2.865871414542198181e-02, -2.664382159709930420e-01, 4.406818747520446777e-01, 8.391193300485610962e-02, -9.858173877000808716e-02, -3.277700394392013550e-03, -8.613011986017227173e-02, 2.257976531982421875e-01, -2.868096828460693359e-01, -3.524485826492309570e-01, -6.305526942014694214e-02, 1.000252887606620789e-01, 2.548950910568237305e-01, -1.688392087817192078e-02, 1.592655777931213379e-01, 1.707586497068405151e-01, -2.588628232479095459e-01, -3.338585197925567627e-01, 3.963260352611541748e-01, -6.282895058393478394e-02, -1.029107645153999329e-01, -1.335732871666550636e-03, -2.153975218534469604e-01, -6.163452193140983582e-02, 3.529803827404975891e-02, 2.128767967224121094e-01, -1.417437344789505005e-01, -1.675956398248672485e-01, -1.283223330974578857e-01, -3.817276358604431152e-01, 1.659585386514663696e-01, 1.649603992700576782e-01, 1.772295124828815460e-02, 2.621922492980957031e-01, 1.592930592596530914e-02, -5.669340491294860840e-02, 2.087801098823547363e-01, -1.390096247196197510e-01},
{-2.640077769756317139e-01, -7.710166275501251221e-02, 3.195955976843833923e-02, 2.336406558752059937e-01, -4.320959746837615967e-01, 2.824674844741821289e-01, 2.400656193494796753e-01, -6.753504276275634766e-02, -1.203934922814369202e-01, 1.138583570718765259e-01, -6.514928489923477173e-02, -1.877935230731964111e-01, 1.036019697785377502e-01, 1.662176847457885742e-01, -8.890539407730102539e-02, -1.569419503211975098e-01, 8.632599562406539917e-02, 1.701485365629196167e-01, 2.675544843077659607e-02, 4.801161214709281921e-02, 1.546625606715679169e-02, 3.463059067726135254e-01, 1.354150939732789993e-02, -1.651090085506439209e-01, -1.763410270214080811e-01, -1.590692847967147827e-01, 4.315611124038696289e-01, -9.258776158094406128e-02, -1.229682341217994690e-01, -2.203275859355926514e-01, -4.030396640300750732e-01, -4.373438283801078796e-02, 5.142527818679809570e-02, 1.862407773733139038e-01, -3.686107695102691650e-01, 4.468346536159515381e-01, -2.263139337301254272e-01, 4.849730432033538818e-02, -2.233647406101226807e-01, 1.075304597616195679e-01, -2.363167107105255127e-01, 3.528623655438423157e-02, 3.663966804742813110e-02, 6.422601174563169479e-03, -8.017098903656005859e-02, 8.040187507867813110e-02, -3.004583157598972321e-02, 1.896551251411437988e-02, -7.716615498065948486e-02, -3.252683579921722412e-02, 4.705976322293281555e-02, -2.805744409561157227e-01, -5.346273258328437805e-02, -9.631359577178955078e-02, -3.110205233097076416e-01, 1.590443551540374756e-01, 1.033019945025444031e-01, 1.921263784170150757e-01, 1.966680437326431274e-01, 1.172888875007629395e-01, 1.634674370288848877e-01, 1.832220517098903656e-02, 1.892846077680587769e-01, 3.001673519611358643e-01},
{-2.750229835510253906e-01, -1.609905809164047241e-02, 4.886837601661682129e-01, 1.823655217885971069e-01, 1.594002693891525269e-01, 2.097159251570701599e-02, -1.338164806365966797e-01, -1.068067550659179688e-01, -8.555967360734939575e-02, -4.158790111541748047e-01, -1.344006806612014771e-01, -2.895857095718383789e-01, 4.231519997119903564e-02, -2.482184022665023804e-01, -3.539692610502243042e-02, -9.150552749633789062e-02, -1.119675710797309875e-01, 5.099405646324157715e-01, -1.446086019277572632e-01, -1.521686464548110962e-02, 1.381134986877441406e-01, 1.399755477905273438e-01, 1.373295485973358154e-02, 4.031720757484436035e-01, -2.390849590301513672e-01, -1.305504888296127319e-01, 2.740060985088348389e-01, -7.701662927865982056e-02, -5.570132285356521606e-02, 4.048424307256937027e-04, -1.801011115312576294e-01, 1.036059409379959106e-01, 1.226439401507377625e-01, 2.451566606760025024e-02, -2.571740150451660156e-01, -1.973359733819961548e-01, -4.220148324966430664e-01, -1.103349030017852783e-01, 4.974466562271118164e-02, -1.884069293737411499e-01, 1.753512173891067505e-01, 5.114194154739379883e-01, -3.294252231717109680e-02, -2.373495697975158691e-01, -2.092164009809494019e-01, -2.410184890031814575e-01, -1.995053887367248535e-01, 4.829573333263397217e-01, 2.258117049932479858e-01, -2.381986081600189209e-01, 1.362959444522857666e-01, 1.403943002223968506e-01, 1.443004608154296875e-01, -1.663503944873809814e-01, -5.456548333168029785e-01, -4.568816721439361572e-02, -1.778396368026733398e-01, -2.168178111314773560e-01, -7.291765511035919189e-02, -3.428685292601585388e-02, -6.567183881998062134e-02, -3.645395860075950623e-02, -3.159650042653083801e-02, 1.144533380866050720e-01},
{-1.264610737562179565e-01, -2.281043976545333862e-01, -2.674047052860260010e-01, 2.234223783016204834e-01, 2.290413677692413330e-01, -3.268376290798187256e-01, 7.986535131931304932e-02, 8.665169589221477509e-03, -8.663153648376464844e-02, -6.022941693663597107e-02, 1.704098582267761230e-01, -4.003988802433013916e-01, -4.473438858985900879e-01, -2.125794589519500732e-01, 3.404572904109954834e-01, 3.970762193202972412e-01, -3.267962038516998291e-01, 3.608868122100830078e-01, 6.675973534584045410e-02, -1.746586412191390991e-01, -8.672008663415908813e-02, 7.588962092995643616e-03, -4.270156845450401306e-02, -2.651408612728118896e-01, -3.216829895973205566e-01, -1.847718507051467896e-01, -8.868269622325897217e-02, -5.680706351995468140e-02, -3.900521993637084961e-02, -3.149642050266265869e-01, -1.086475849151611328e-01, 5.195702314376831055e-01, 7.952352613210678101e-02, -6.466329842805862427e-02, -5.956268310546875000e-01, 1.558757573366165161e-01, -1.855109483003616333e-01, -1.303471922874450684e-01, -1.028609573841094971e-01, -2.657436430454254150e-01, -2.974309399724006653e-02, 2.034740149974822998e-01, 2.627360522747039795e-01, -2.572669684886932373e-01, -1.960108727216720581e-01, -3.212037086486816406e-01, -4.150173962116241455e-01, 1.531898826360702515e-01, -4.420774579048156738e-01, -3.330835700035095215e-01, -2.548529803752899170e-01, 2.293660789728164673e-01, 9.591341018676757812e-02, 3.625559508800506592e-01, 1.485954672098159790e-01, 3.155384957790374756e-01, 7.694160938262939453e-02, -7.529405504465103149e-02, -1.726434566080570221e-02, -1.674583107233047485e-01, -1.427060067653656006e-01, 2.081355303525924683e-01, 2.278643101453781128e-01, -2.704134285449981689e-01},
{-9.346017241477966309e-02, -1.317425668239593506e-01, 1.606187671422958374e-01, 1.542968209832906723e-02, -3.099840320646762848e-02, -1.431453078985214233e-01, -7.056915760040283203e-02, 9.715057909488677979e-03, -3.088450431823730469e-01, -5.487304329872131348e-01, 1.225006729364395142e-01, -9.427305310964584351e-02, 1.323986798524856567e-02, -2.392924129962921143e-01, 1.620081961154937744e-01, 5.090244114398956299e-02, 4.742451906204223633e-01, -5.983347538858652115e-03, 3.964781388640403748e-02, 5.502178892493247986e-02, -1.309354305267333984e-01, 1.653462499380111694e-01, -1.435150858014822006e-02, 8.259823173284530640e-02, 1.380215138196945190e-01, -1.026142910122871399e-01, -1.521224230527877808e-01, -1.292218416929244995e-01, -4.286561310291290283e-01, 1.854075938463211060e-01, 4.134602844715118408e-02, -1.909562647342681885e-01, 1.301818341016769409e-01, 5.124042555689811707e-02, -2.275401949882507324e-01, -8.139401674270629883e-02, 1.734755933284759521e-01, 1.149294748902320862e-01, 9.743499755859375000e-02, 6.705529522150754929e-03, -3.276170790195465088e-01, -8.154541254043579102e-02, -1.437374353408813477e-01, 1.528151631355285645e-01, -1.783111691474914551e-01, -3.078566193580627441e-01, -1.811026781797409058e-01, -8.326428011059761047e-03, -1.898202598094940186e-01, 4.892029985785484314e-02, -1.242773234844207764e-02, 6.560543924570083618e-02, 1.824931353330612183e-01, 1.523532867431640625e-01, -3.517270684242248535e-01, 8.386231213808059692e-02, 3.560460805892944336e-01, 2.064508646726608276e-01, 3.100594878196716309e-01, 9.811184555292129517e-02, 2.090131789445877075e-01, 2.312485314905643463e-02, -2.441578209400177002e-01, 1.974666863679885864e-01},
{6.697090715169906616e-02, 6.129648536443710327e-02, 6.345706433057785034e-02, 1.711437702178955078e-01, 4.868880286812782288e-02, -8.089851588010787964e-02, 3.187775239348411560e-02, -1.069331616163253784e-01, -5.711822211742401123e-02, -2.408122085034847260e-02, 1.555088907480239868e-01, -2.814935743808746338e-01, 6.421107053756713867e-02, -3.791825473308563232e-01, -1.253795176744461060e-01, 3.028668090701103210e-02, 1.729959547519683838e-01, -1.851670444011688232e-03, 2.255226075649261475e-01, 1.482960730791091919e-01, 1.074137762188911438e-01, -1.216383501887321472e-01, 1.293950974941253662e-01, -4.236128628253936768e-01, 1.120550781488418579e-01, -2.461158782243728638e-01, -8.055353164672851562e-02, 1.101058870553970337e-01, 1.055779382586479187e-01, -2.872340567409992218e-02, -3.030587434768676758e-01, -1.872664988040924072e-01, -7.596465945243835449e-02, -5.873792618513107300e-02, -1.253637373447418213e-01, -2.206520885229110718e-01, -1.207657381892204285e-01, 2.129469215869903564e-01, 1.136456653475761414e-01, -2.637397646903991699e-01, 7.133636623620986938e-02, 1.466062366962432861e-01, 2.347595840692520142e-01, 4.781740251928567886e-03, 1.182925049215555191e-02, 3.246220052242279053e-01, 1.314555108547210693e-01, -9.008950553834438324e-03, 2.270485013723373413e-01, 3.109551072120666504e-01, 3.529120683670043945e-01, 1.738790422677993774e-01, -1.716084033250808716e-01, 9.361080080270767212e-02, 1.656021326780319214e-01, 3.689825832843780518e-01, 3.832550719380378723e-03, -4.480914026498794556e-02, 7.906194031238555908e-02, -2.410409152507781982e-01, -8.724476397037506104e-02, 1.373188644647598267e-01, -2.275583893060684204e-01, 3.452612161636352539e-01},
{3.031782060861587524e-02, -4.733974039554595947e-01, 1.028805151581764221e-01, 5.488612055778503418e-01, 1.480108648538589478e-01, 2.302371561527252197e-01, -1.541457623243331909e-01, 1.102808639407157898e-01, -6.137787923216819763e-02, -9.930118173360824585e-02, 1.847102493047714233e-01, -2.189688384532928467e-01, 1.066872254014015198e-01, 1.913116872310638428e-02, 3.907854855060577393e-01, -2.728189229965209961e-01, 1.375726759433746338e-01, 3.280717730522155762e-01, 8.190894871950149536e-02, -1.471197158098220825e-01, 3.130463659763336182e-01, 5.410274863243103027e-02, 7.813273929059505463e-03, 2.193575799465179443e-01, 7.820810377597808838e-02, 7.683776319026947021e-02, 1.582375019788742065e-01, -2.368701994419097900e-01, -1.976037025451660156e-01, 6.679739803075790405e-02, 6.221827585250139236e-03, 1.561392098665237427e-01, 1.752847433090209961e-01, 3.127911090850830078e-01, -3.984899818897247314e-01, -3.778427094221115112e-02, 1.727233827114105225e-01, -9.439054131507873535e-02, -1.238072663545608521e-01, 2.127576619386672974e-01, 1.102269887924194336e-01, 1.230836287140846252e-01, -4.317171573638916016e-01, 1.648573279380798340e-01, 8.248499780893325806e-02, 9.551517665386199951e-02, -1.768574863672256470e-01, -3.355215862393379211e-02, 6.658176332712173462e-02, -1.888537555932998657e-01, 3.678038120269775391e-01, -6.578812003135681152e-02, -3.186935931444168091e-02, 1.250948160886764526e-01, 1.524226516485214233e-01, 9.966028481721878052e-02, -2.474125325679779053e-01, -7.964184135198593140e-02, 3.950720652937889099e-02, -3.179297745227813721e-01, 1.496405005455017090e-01, 1.936598867177963257e-01, 1.440923810005187988e-01, 1.722412705421447754e-01},
{2.342098355293273926e-01, -1.112713068723678589e-01, 9.408089518547058105e-02, 2.514036893844604492e-01, 1.602498069405555725e-02, -1.725381016731262207e-01, 2.607526779174804688e-01, -1.914848573505878448e-02, 2.690513730049133301e-01, 5.531391501426696777e-02, -2.853856384754180908e-01, -3.394841253757476807e-01, -6.651882827281951904e-02, -5.157965421676635742e-01, 1.660386025905609131e-01, -1.148899495601654053e-01, -4.898886382579803467e-02, 2.986121177673339844e-01, 2.979170382022857666e-01, 1.593109071254730225e-01, 2.565442621707916260e-01, -2.442848533391952515e-01, 1.200241148471832275e-01, 2.597653074190020561e-03, -1.936088204383850098e-01, 7.043274492025375366e-02, 1.015091761946678162e-01, -1.446603834629058838e-01, -2.041784226894378662e-01, 1.545375734567642212e-01, 4.715934395790100098e-01, -4.843419417738914490e-02, -4.224182572215795517e-03, 2.290174923837184906e-02, -3.467944264411926270e-01, 1.982630789279937744e-01, 2.398747205734252930e-01, 9.512894600629806519e-02, -1.191740706562995911e-01, 8.211763948202133179e-02, -1.224632859230041504e-01, 3.789863288402557373e-01, 1.691353023052215576e-01, -2.000032365322113037e-01, 2.052218466997146606e-02, -3.256034851074218750e-02, 1.385114789009094238e-01, 1.519601643085479736e-01, -3.100621700286865234e-02, -1.684231311082839966e-01, -7.321319077163934708e-03, -3.864166140556335449e-01, 2.152930051088333130e-01, -2.656194269657135010e-01, -6.499607861042022705e-02, -1.228053420782089233e-01, 1.242895200848579407e-01, 1.673650741577148438e-01, 1.019551306962966919e-01, -1.152137201279401779e-02, 1.383938342332839966e-01, 1.171426922082901001e-01, -2.392417788505554199e-01, -9.140183776617050171e-02},
{-2.796685099601745605e-01, -2.785913944244384766e-01, -1.789384484291076660e-01, 2.338913828134536743e-02, 1.167953461408615112e-01, -4.580629169940948486e-01, 7.061287015676498413e-02, 3.528029918670654297e-01, -1.147382631897926331e-01, 1.001329943537712097e-01, -1.200583353638648987e-01, -2.854173183441162109e-01, 6.289135664701461792e-02, -4.175415039062500000e-01, -6.529060751199722290e-02, 1.933631896972656250e-01, -1.951104849576950073e-01, 1.726307421922683716e-01, 1.782593280076980591e-01, -3.392366170883178711e-01, -1.380442827939987183e-02, -4.154494404792785645e-01, -6.770756095647811890e-02, -6.858346611261367798e-02, -6.418185234069824219e-01, 1.982926279306411743e-01, 1.719395667314529419e-01, 2.796615473926067352e-02, -2.867327034473419189e-01, -1.588252037763595581e-01, -2.113354355096817017e-01, 4.232999384403228760e-01, -2.665857598185539246e-02, -1.751217842102050781e-01, -4.475356638431549072e-01, 1.282932609319686890e-01, 4.476867616176605225e-02, 1.783540695905685425e-01, 1.576865464448928833e-01, -1.293816417455673218e-01, -4.794418811798095703e-02, 2.105192989110946655e-01, -3.200150132179260254e-01, -1.063643097877502441e-01, -3.269198238849639893e-01, 1.315190047025680542e-01, -4.224930405616760254e-01, -1.322850435972213745e-01, -1.543960273265838623e-01, -1.749611496925354004e-01, -1.515807658433914185e-01, 2.142966240644454956e-01, 1.325159668922424316e-01, 1.362077295780181885e-01, -9.713934361934661865e-02, -1.686359792947769165e-01, -2.131069898605346680e-01, -1.119053810834884644e-01, 3.397447764873504639e-01, 1.232745219022035599e-02, -5.020197033882141113e-01, -3.333479166030883789e-01, 1.307837069034576416e-01, 2.753936350345611572e-01},
{-5.791237577795982361e-02, 2.735457755625247955e-02, 1.323436293751001358e-02, 1.087726503610610962e-01, -2.901287190616130829e-02, -1.258852332830429077e-01, -1.907540410757064819e-01, 8.818233758211135864e-02, -1.618347689509391785e-02, -4.911126196384429932e-02, -4.342964664101600647e-02, -9.125417470932006836e-02, -2.797268033027648926e-01, 1.711744964122772217e-01, 9.315914660692214966e-02, 1.925599128007888794e-01, 2.682219073176383972e-02, -5.361212417483329773e-02, 4.921591877937316895e-01, 7.135552912950515747e-02, 3.428452014923095703e-01, 1.345965266227722168e-01, -1.510479152202606201e-01, 1.138174086809158325e-01, -5.116600990295410156e-01, 2.407004684209823608e-01, 3.394939005374908447e-01, -2.602223753929138184e-01, -6.685845553874969482e-02, 3.904234990477561951e-02, 2.644066810607910156e-01, 7.790634781122207642e-02, -8.665177226066589355e-02, 9.452405571937561035e-02, -3.239914774894714355e-01, -1.685570776462554932e-01, 2.978314161300659180e-01, -5.146604403853416443e-02, -2.047717720270156860e-01, 1.694314926862716675e-01, -3.153330683708190918e-01, 1.951260715723037720e-01, 4.493619501590728760e-01, -3.075581490993499756e-01, 3.376147150993347168e-02, 1.800616830587387085e-02, -1.796277314424514771e-01, -6.260675191879272461e-02, 5.475534871220588684e-02, 3.821351230144500732e-01, 1.532172113656997681e-01, 1.141049992293119431e-02, -3.463915362954139709e-02, 4.235665202140808105e-01, -1.705601811408996582e-01, 2.046163380146026611e-01, -2.062658369541168213e-01, 9.677469730377197266e-02, -4.489467740058898926e-01, 3.487451374530792236e-01, -1.743322312831878662e-01, -5.042575672268867493e-02, 1.213712245225906372e-02, 2.239064276218414307e-01},
{2.974627614021301270e-01, 9.534543007612228394e-02, 1.748960203258320689e-04, -2.211739420890808105e-01, -1.492380164563655853e-02, -4.920549094676971436e-01, 1.971986889839172363e-01, 5.130798369646072388e-02, -3.735011816024780273e-01, 1.027693301439285278e-01, 2.131731957197189331e-01, -4.317577928304672241e-02, 5.461047962307929993e-02, 1.660127043724060059e-01, -2.268092520534992218e-02, 3.488659858703613281e-02, -1.269860416650772095e-01, -2.423270940780639648e-01, -3.500303030014038086e-01, 3.240298330783843994e-01, -3.096226751804351807e-01, -2.829144150018692017e-02, 9.298817813396453857e-02, 8.604069054126739502e-02, 2.372696846723556519e-01, -1.954406052827835083e-01, -1.936772763729095459e-01, 1.901849955320358276e-01, 3.006041646003723145e-01, 2.184350937604904175e-01, -1.043375283479690552e-01, 2.789915204048156738e-01, 4.602783825248479843e-03, -1.623116880655288696e-01, 2.353349328041076660e-01, 2.181646525859832764e-01, 1.282490044832229614e-01, 8.751853555440902710e-02, 7.995276246219873428e-05, 2.437235787510871887e-02, 5.113508552312850952e-02, -4.548104703426361084e-01, -3.661973401904106140e-02, -4.289944842457771301e-02, 1.823182851076126099e-01, 4.053812325000762939e-01, -2.348652034997940063e-01, 4.900072515010833740e-01, -5.537745356559753418e-02, 4.137417972087860107e-01, -4.724790528416633606e-02, -1.985927075147628784e-01, -1.027795113623142242e-02, 2.035095356404781342e-02, 1.844335049390792847e-01, 9.692850708961486816e-02, -2.667919099330902100e-01, -3.670256137847900391e-01, 7.874401658773422241e-02, 3.134157955646514893e-01, 1.721930131316184998e-02, -6.883763521909713745e-02, 3.437806963920593262e-01, -7.705306261777877808e-02},
{-1.221913695335388184e-01, 2.465680539608001709e-01, -6.693330407142639160e-02, 1.590342223644256592e-01, 4.984885454177856445e-01, -6.674063205718994141e-02, 1.788978576660156250e-01, -2.738564014434814453e-01, 7.743890583515167236e-02, 6.187810376286506653e-02, -6.719925403594970703e-01, 1.649667136371135712e-02, -6.209743767976760864e-02, -7.381282001733779907e-02, 8.444482833147048950e-02, 2.910716272890567780e-02, -2.063873410224914551e-02, -1.451609749346971512e-02, 1.930399984121322632e-02, -7.437244523316621780e-03, -5.971705913543701172e-02, 2.436682879924774170e-01, 7.755836844444274902e-02, 5.079287290573120117e-02, -2.400547266006469727e-01, 2.329039573669433594e-01, -1.487886533141136169e-03, 3.318566456437110901e-02, -1.923456490039825439e-01, 1.060202419757843018e-01, -1.435775458812713623e-01, -9.852067381143569946e-02, 1.160561889410018921e-01, 4.550951123237609863e-01, -1.723570972681045532e-01, -1.590034812688827515e-01, 1.798640489578247070e-01, -2.045885026454925537e-01, -1.204127073287963867e-02, -1.879274398088455200e-01, 3.931169211864471436e-02, 1.423441711813211441e-02, 3.226793557405471802e-02, 2.603209912776947021e-01, 2.112957090139389038e-01, 1.566632390022277832e-01, -5.203879624605178833e-02, 1.109304204583168030e-01, 3.403681889176368713e-02, -1.860047280788421631e-01, 1.299671642482280731e-02, 1.816094517707824707e-01, 1.109018828719854355e-02, -3.889799863100051880e-02, 3.835454955697059631e-02, 4.295029118657112122e-02, 1.773104816675186157e-01, -9.425356239080429077e-02, 8.344075083732604980e-02, 4.909768328070640564e-02, 4.544084072113037109e-01, -1.414141356945037842e-01, 8.386332541704177856e-02, 2.515538632869720459e-01},
{-2.551973760128021240e-01, 1.159040257334709167e-01, 1.150939837098121643e-01, 5.103089809417724609e-01, -4.313762474339455366e-04, 2.679275274276733398e-01, 2.499102354049682617e-01, -2.530835270881652832e-01, -2.278463542461395264e-01, -2.465187609195709229e-01, -1.048310101032257080e-01, -4.114150702953338623e-01, -1.525928527116775513e-01, -2.071721553802490234e-01, -1.445922651328146458e-03, -2.086439877748489380e-01, 1.523961573839187622e-01, 1.755122840404510498e-02, 7.621852308511734009e-02, 2.328280955553054810e-01, 1.477611437439918518e-02, 1.712712086737155914e-02, 2.456292659044265747e-01, 3.303188979625701904e-01, -1.659764721989631653e-02, 3.178990781307220459e-01, -3.424092009663581848e-02, 6.050707027316093445e-02, -4.665339738130569458e-02, -1.666351407766342163e-01, -4.256686568260192871e-01, -9.383713454008102417e-02, -1.677999831736087799e-02, -3.179549574851989746e-01, 2.170066237449645996e-01, 6.763704121112823486e-02, 3.227495253086090088e-01, -3.104909658432006836e-01, 2.619931995868682861e-01, -1.993391662836074829e-01, 1.019453033804893494e-01, 4.439649879932403564e-01, -3.229117393493652344e-01, 3.280783295631408691e-01, 2.154070287942886353e-01, -3.156934678554534912e-01, 1.864125579595565796e-01, -1.335108280181884766e-01, 1.316745132207870483e-01, 2.245926409959793091e-01, 9.831106290221214294e-04, 1.025195941329002380e-01, -9.151755273342132568e-02, -6.514179706573486328e-02, -6.793601065874099731e-02, -1.365998834371566772e-01, -1.035818383097648621e-01, 2.100838422775268555e-01, 7.696830481290817261e-02, 1.658538132905960083e-01, 1.326389238238334656e-02, 3.395885229110717773e-01, -5.865349993109703064e-02, -4.250202476978302002e-01},
{1.237077638506889343e-01, 2.677517831325531006e-01, -1.109743416309356689e-01, -6.867472082376480103e-02, -9.314797073602676392e-02, -2.364349551498889923e-02, -2.654150426387786865e-01, -1.356923133134841919e-01, 1.037748977541923523e-01, -5.956986546516418457e-02, -1.442270725965499878e-01, -1.666010916233062744e-01, -9.197167120873928070e-03, -1.386346668004989624e-01, -2.497561462223529816e-02, 3.486588299274444580e-01, 1.201206445693969727e-01, -1.060396879911422729e-01, -4.212021231651306152e-01, 1.991378515958786011e-02, -2.272054925560951233e-02, -7.508236914873123169e-02, 9.891067631542682648e-03, -2.123389989137649536e-01, 1.939006149768829346e-01, 4.568275809288024902e-01, 8.809775114059448242e-02, -9.243256412446498871e-03, 1.871525794267654419e-01, 9.662720561027526855e-02, 3.570505678653717041e-01, 1.160332933068275452e-01, -1.437651664018630981e-01, -2.541440725326538086e-01, 3.660779297351837158e-01, 1.874035596847534180e-01, -1.362982839345932007e-01, 7.606603205204010010e-02, 7.046841084957122803e-02, 3.495570123195648193e-01, -1.668062210083007812e-01, -6.790434122085571289e-01, 1.240724250674247742e-01, 9.766312688589096069e-02, -3.834944963455200195e-02, -3.375717103481292725e-01, 4.339157044887542725e-01, -2.559413611888885498e-01, 1.599702835083007812e-01, 2.284535765647888184e-01, 7.306353002786636353e-02, -1.880570352077484131e-01, -3.711484074592590332e-01, 2.184190899133682251e-01, 2.226759791374206543e-01, -4.753408581018447876e-02, 7.186274975538253784e-02, -4.192788302898406982e-01, 3.277275562286376953e-01, -2.769515514373779297e-01, 1.901443600654602051e-01, -1.073646172881126404e-01, 3.620258569717407227e-01, 1.594229042530059814e-01},
{2.985493838787078857e-02, 2.379232048988342285e-01, -9.926662594079971313e-02, -3.759241402149200439e-01, 8.971714228391647339e-02, -1.213122829794883728e-01, -1.034937947988510132e-01, 2.452499698847532272e-03, 5.116879940032958984e-01, -7.968507707118988037e-02, 2.891366481781005859e-01, 4.568345844745635986e-01, -1.156470254063606262e-01, 1.883892565965652466e-01, -1.660404168069362640e-02, -1.509283483028411865e-01, 4.286378249526023865e-02, 7.246869057416915894e-02, -4.367311298847198486e-02, 4.288273155689239502e-01, -4.217387735843658447e-01, -1.693638414144515991e-01, -1.293956637382507324e-01, -6.275627017021179199e-02, -3.240245953202247620e-02, 2.331318557262420654e-01, 3.180164694786071777e-01, 4.415954649448394775e-01, 2.001371085643768311e-01, 9.005195647478103638e-02, 1.291237771511077881e-01, 7.747671753168106079e-02, 9.134621918201446533e-02, -2.934894561767578125e-01, 8.143278211355209351e-02, -1.292402297258377075e-01, 1.228047460317611694e-01, 1.930199414491653442e-01, -4.204240739345550537e-01, 6.564559787511825562e-02, -2.092051208019256592e-01, -4.263458251953125000e-01, -1.869465559720993042e-01, 2.797168493270874023e-01, 2.643280327320098877e-01, 1.964674331247806549e-02, 2.911236584186553955e-01, -1.728579998016357422e-01, 9.966769814491271973e-02, 4.096472859382629395e-01, 1.103586405515670776e-01, -1.883614957332611084e-01, -8.230631053447723389e-02, -7.505642622709274292e-02, -3.539007157087326050e-02, 2.206747680902481079e-01, 1.193152293562889099e-01, -1.790532171726226807e-01, -4.306047037243843079e-02, -2.049918919801712036e-01, 1.991235464811325073e-01, 1.286849379539489746e-02, 1.677474752068519592e-02, -1.678057461977005005e-01},
